/* Generated by Edge Impulse
 *
 * Permission is hereby granted, free of charge, to any person obtaining a copy
 * of this software and associated documentation files (the "Software"), to deal
 * in the Software without restriction, including without limitation the rights
 * to use, copy, modify, merge, publish, distribute, sublicense, and/or sell
 * copies of the Software, and to permit persons to whom the Software is
 * furnished to do so, subject to the following conditions:
 *
 * The above copyright notice and this permission notice shall be included in
 * all copies or substantial portions of the Software.
 *
 * THE SOFTWARE IS PROVIDED "AS IS", WITHOUT WARRANTY OF ANY KIND, EXPRESS OR
 * IMPLIED, INCLUDING BUT NOT LIMITED TO THE WARRANTIES OF MERCHANTABILITY,
 * FITNESS FOR A PARTICULAR PURPOSE AND NONINFRINGEMENT. IN NO EVENT SHALL THE
 * AUTHORS OR COPYRIGHT HOLDERS BE LIABLE FOR ANY CLAIM, DAMAGES OR OTHER
 * LIABILITY, WHETHER IN AN ACTION OF CONTRACT, TORT OR OTHERWISE, ARISING FROM,
 * OUT OF OR IN CONNECTION WITH THE SOFTWARE OR THE USE OR OTHER DEALINGS IN THE
 * SOFTWARE.
 */
// Generated on: 03.05.2023 20:19:31

#include <stdio.h>
#include <stdlib.h>
#include "edge-impulse-sdk/tensorflow/lite/c/builtin_op_data.h"
#include "edge-impulse-sdk/tensorflow/lite/c/common.h"
#include "edge-impulse-sdk/tensorflow/lite/micro/micro_mutable_op_resolver.h"
#include "edge-impulse-sdk/porting/ei_classifier_porting.h"

#if EI_CLASSIFIER_PRINT_STATE
#if defined(__cplusplus) && EI_C_LINKAGE == 1
extern "C" {
    extern void ei_printf(const char *format, ...);
}
#else
extern void ei_printf(const char *format, ...);
#endif
#endif

#if defined __GNUC__
#define ALIGN(X) __attribute__((aligned(X)))
#elif defined _MSC_VER
#define ALIGN(X) __declspec(align(X))
#elif defined __TASKING__
#define ALIGN(X) __align(X)
#endif

#ifndef EI_MAX_SCRATCH_BUFFER_COUNT
#define EI_MAX_SCRATCH_BUFFER_COUNT 4
#endif // EI_MAX_SCRATCH_BUFFER_COUNT

#ifndef EI_MAX_OVERFLOW_BUFFER_COUNT
#define EI_MAX_OVERFLOW_BUFFER_COUNT 10
#endif // EI_MAX_OVERFLOW_BUFFER_COUNT

using namespace tflite;
using namespace tflite::ops;
using namespace tflite::ops::micro;

namespace {

#if defined(EI_CLASSIFIER_ALLOCATION_STATIC_HIMAX) || defined(EI_CLASSIFIER_ALLOCATION_STATIC_HIMAX_GNU)
constexpr int kTensorArenaSize = 2816;
#else
constexpr int kTensorArenaSize = 1792;
#endif

#if defined(EI_CLASSIFIER_ALLOCATION_STATIC)
uint8_t tensor_arena[kTensorArenaSize] ALIGN(16);
#elif defined(EI_CLASSIFIER_ALLOCATION_STATIC_HIMAX)
#pragma Bss(".tensor_arena")
uint8_t tensor_arena[kTensorArenaSize] ALIGN(16);
#pragma Bss()
#elif defined(EI_CLASSIFIER_ALLOCATION_STATIC_HIMAX_GNU)
uint8_t tensor_arena[kTensorArenaSize] ALIGN(16) __attribute__((section(".tensor_arena")));
#else
#define EI_CLASSIFIER_ALLOCATION_HEAP 1
uint8_t* tensor_arena = NULL;
#endif

static uint8_t* tensor_boundary;
static uint8_t* current_location;

template <int SZ, class T> struct TfArray {
  int sz; T elem[SZ];
};
enum used_operators_e {
  OP_FULLY_CONNECTED, OP_SOFTMAX,  OP_LAST
};
struct TensorInfo_t { // subset of TfLiteTensor used for initialization from constant memory
  TfLiteAllocationType allocation_type;
  void* data;
  TfLiteIntArray* dims;
  size_t bytes;
};
struct NodeInfo_t { // subset of TfLiteNode used for initialization from constant memory
  struct TfLiteIntArray* inputs;
  struct TfLiteIntArray* outputs;
  void* builtin_data;
  used_operators_e used_op_index;
};

typedef struct {
  TfLiteTensor tensor;
  int16_t index;
} TfLiteTensorWithIndex;

typedef struct {
  TfLiteEvalTensor tensor;
  int16_t index;
} TfLiteEvalTensorWithIndex;

TfLiteContext ctx{};
static const int MAX_TFL_TENSOR_COUNT = 4;
static TfLiteTensorWithIndex tflTensors[MAX_TFL_TENSOR_COUNT];
static const int MAX_TFL_EVAL_COUNT = 4;
static TfLiteEvalTensorWithIndex tflEvalTensors[MAX_TFL_EVAL_COUNT];
TfLiteRegistration registrations[OP_LAST];
TfLiteNode tflNodes[6];

const TfArray<2, int> tensor_dimension0 = { 2, { 1,182 } };
const ALIGN(16) float tensor_data1[4] = { -0.01134316623210907, -0.30207347869873047, -0.13993056118488312, 0.49001997709274292, };
const TfArray<1, int> tensor_dimension1 = { 1, { 4 } };
const ALIGN(16) float tensor_data2[80] = { 0.11355302482843399, 0.35340818762779236, -0.1117110550403595, 0.51509296894073486, 0.72654992341995239, 0.66679513454437256, -0.18007597327232361, 0.43846312165260315, 0.24373431503772736, 0.079889103770256042, 0.25847166776657104, -0.056567851454019547, 0.46327629685401917, 0.18482168018817902, -0.34595787525177002, -0.29781273007392883, 0.64917993545532227, 0.30306941270828247, 0.082695461809635162, -0.048250999301671982, 0.27081143856048584, 0.14481998980045319, 0.08373725414276123, 0.65077686309814453, 0.040766935795545578, 0.33939659595489502, 0.11168605089187622, -0.048673886805772781, 0.051740039139986038, 0.035690031945705414, 0.55980008840560913, 0.50208240747451782, 0.43193712830543518, 0.15045090019702911, -0.082501769065856934, 0.44171386957168579, 0.33074575662612915, 0.37813881039619446, 0.50060743093490601, -0.0025433977134525776, 0.18234223127365112, 0.19275113940238953, -0.020253965631127357, 0.37321710586547852, 0.41077002882957458, -0.016725536435842514, 0.028907004743814468, 0.61667764186859131, -0.2941148579120636, 0.13521645963191986, 0.2127087414264679, 0.58993780612945557, -0.033626187592744827, 0.47136113047599792, 0.65196484327316284, -0.035634409636259079, 0.030744178220629692, -0.070876896381378174, -0.11129767447710037, 0.011982318945229053, 0.1317351907491684, -0.15116699039936066, 0.5886833667755127, 0.39839470386505127, 0.018287604674696922, 0.58306443691253662, 0.16367208957672119, 0.70389455556869507, -0.061419330537319183, 0.15027245879173279, -0.13423091173171997, 0.1843690425157547, 0.1267407238483429, 0.061308450996875763, 0.0050188642926514149, 0.1929706484079361, -0.11573541164398193, -0.40128821134567261, 0.0085668256506323814, -0.20380346477031708, };
const TfArray<1, int> tensor_dimension2 = { 1, { 80 } };
const ALIGN(16) float tensor_data3[125] = { 0.23226696252822876, 0.19678080081939697, -0.13709121942520142, -0.15876010060310364, 0.27551078796386719, 0.29998737573623657, -0.063369922339916229, 0.069051861763000488, -0.10652405768632889, 0.53339457511901855, -0.42208129167556763, -0.52323412895202637, -0.037741925567388535, 0.88237446546554565, -0.19486762583255768, 0.23675630986690521, -0.10242853313684464, 0.23728558421134949, 0.35988029837608337, 0.020658593624830246, -0.00027461204444989562, 0.42533692717552185, 0.14099134504795074, -0.2252819687128067, 0.26059463620185852, 0.10960264503955841, -0.28880968689918518, 0.026986589655280113, 0.21602751314640045, -0.080231644213199615, -0.27535885572433472, -0.056986447423696518, 0.48010158538818359, -0.14196740090847015, -0.014244201593101025, 0.14883799850940704, -0.049763914197683334, 0.22798389196395874, 0.37560132145881653, 0.06286032497882843, 0.57306921482086182, 0.71028745174407959, -0.43875309824943542, -0.57212573289871216, -0.17388787865638733, -0.14739392697811127, -0.02396782673895359, -0.088778622448444366, -0.12936308979988098, -0.18672730028629303, -0.11233089119195938, 0.054760392755270004, 0.5836595892906189, 0.17940402030944824, -0.24495947360992432, 0.27274408936500549, 0.45188957452774048, -0.40484857559204102, -0.15585611760616302, -0.053642075508832932, 0.975638747215271, -0.10368527472019196, 0.43491357564926147, 0.71097344160079956, 0.67067533731460571, 0.048569131642580032, 0.24484491348266602, 0.0076725059188902378, 0.19542770087718964, -0.23476208746433258, 0.083653204143047333, 0.49684664607048035, -0.22412493824958801, 0.73552733659744263, 0.42210638523101807, 0.55330431461334229, -0.12867394089698792, -0.16052320599555969, 0.19154089689254761, -0.93161308765411377, -0.11658722162246704, 1.1295965909957886, 0.33770602941513062, -0.46552360057830811, 0.038821063935756683, -0.032446090131998062, 0.050458692014217377, 0.52734458446502686, -0.22937086224555969, 0.45101937651634216, -0.029199700802564621, -0.0075639155693352222, 0.27167737483978271, -0.17374654114246368, -0.27059930562973022, -0.083934232592582703, 0.098238207399845123, 0.041555371135473251, 0.14240235090255737, -0.16058540344238281, -0.17227712273597717, 0.52655929327011108, -0.12062002718448639, 0.33623400330543518, 0.78977400064468384, -0.25900724530220032, 0.61915779113769531, 0.93512505292892456, 1.2572541236877441, 0.34699618816375732, -0.99909549951553345, 0.32010859251022339, 0.040981143712997437, -0.020667310804128647, 0.21958348155021667, -0.093771092593669891, 0.5487133264541626, 0.51062655448913574, -0.21830907464027405, -0.14047157764434814, 0.049269448965787888, -0.25123950839042664, 0.069569215178489685, 0.063856631517410278, -0.053902283310890198, };
const TfArray<1, int> tensor_dimension3 = { 1, { 125 } };
const ALIGN(16) float tensor_data4[100] = { 0.63226217031478882, -0.44666409492492676, -0.11706239730119705, -0.073126137256622314, -0.17431341111660004, 0.10958231985569, -0.13678458333015442, 0.02444063313305378, 0.26806163787841797, 0.52550911903381348, 0.05272289365530014, 0.51235145330429077, 0.10652245581150055, -0.34039375185966492, 0.49221882224082947, -0.1381889283657074, 0.77630120515823364, 0.43951508402824402, -0.070881538093090057, 0.35772162675857544, -0.302112877368927, -0.046900354325771332, 0.075942650437355042, -0.39472618699073792, 0.17470285296440125, -0.22804798185825348, -0.22550185024738312, -0.13697969913482666, 0.64276337623596191, 0.43826040625572205, 0.25410342216491699, -0.079881422221660614, -0.75076538324356079, 0.052730012685060501, 0.40842700004577637, 0.51792097091674805, -0.038360901176929474, 0.15032421052455902, -0.40012669563293457, -0.45280811190605164, -0.26147684454917908, 0.17791925370693207, -0.44384989142417908, -0.40562394261360168, 0.82938683032989502, -0.32868325710296631, 0.02317054383456707, 0.081495322287082672, 0.037942793220281601, 0.15740060806274414, 0.749977707862854, -0.2851499617099762, -0.69355016946792603, -0.004798215813934803, 0.35313093662261963, -0.34014874696731567, 0.36013832688331604, 0.13586477935314178, 0.15333139896392822, -0.10968251526355743, -0.42599537968635559, -0.24258136749267578, 0.7387688159942627, -0.15623411536216736, -0.56483620405197144, 1.0379822254180908, 0.19891698658466339, 0.59410637617111206, -0.11406458914279938, -0.40367254614830017, 0.65181350708007812, -0.29223534464836121, 0.22421784698963165, 0.39482936263084412, 0.35285037755966187, -0.17798604071140289, -0.23153090476989746, -0.12735827267169952, -0.63922208547592163, -0.16959470510482788, 0.15056277811527252, 0.41470900177955627, 0.094682596623897552, -0.32855817675590515, -0.56964540481567383, -0.31734618544578552, 0.48620694875717163, 0.27393573522567749, -0.46756079792976379, -0.20380474627017975, -0.16327448189258575, -0.11026373505592346, 0.47264042496681213, -0.10510478168725967, -0.12443404644727707, -0.31732186675071716, 0.27401354908943176, -0.14484760165214539, -0.28356021642684937, -0.11390772461891174, };
const TfArray<1, int> tensor_dimension4 = { 1, { 100 } };
const ALIGN(16) float tensor_data5[200] = { -0.058749549090862274, 0.19995255768299103, 0.0017752342391759157, -0.054069951176643372, 0.032038085162639618, -0.010830097831785679, 0.11357124894857407, -0.012780486606061459, 0.17962385714054108, -0.038738373667001724, 0.038563929498195648, 0.052079889923334122, -0.14538507163524628, -0.03280109167098999, 0.28585433959960938, -0.0087482528761029243, 0.24715957045555115, -0.014666215516626835, 0.07037036120891571, -0.028330719098448753, -0.011267662979662418, -0.053649451583623886, -0.111988864839077, 0.0059576486237347126, 0.16349448263645172, -0.3475973904132843, 0.082191690802574158, 0.14337366819381714, -0.027116667479276657, -0.053665746003389359, -0.14137957990169525, 0.14004240930080414, -0.0009534811251796782, -0.022610198706388474, 0.23083160817623138, -0.00651197275146842, 0.18978521227836609, 0.1066221296787262, 0.10967161506414413, 0.090849950909614563, 0.017767248675227165, -0.015990933403372765, 0.042321048676967621, 0.041111133992671967, 0.5386345386505127, 0.2438553124666214, -0.011522694490849972, 0.226922407746315, 0.24049603939056396, 0.4154268205165863, 0.17098189890384674, -0.073240503668785095, -0.04716026782989502, 0.26164150238037109, 0.22313784062862396, 0.15926864743232727, -0.070417203009128571, 0.070823423564434052, 0.10542957484722137, 0.063529610633850098, -0.033782958984375, -0.020125558599829674, 0.23520687222480774, 0.20175376534461975, 0.38134044408798218, 0.31296849250793457, 0.015280231833457947, 0.31242164969444275, -0.045135583728551865, 0.28129470348358154, -0.0013476532185450196, 0.14922522008419037, -0.045028876513242722, 0.04838889092206955, -0.087006598711013794, 0.010556601919233799, -0.16415770351886749, 0.063082225620746613, -0.052542343735694885, -0.15576569736003876, -0.051748741418123245, 0.29706445336341858, 0.36553794145584106, -0.18674153089523315, 0.29126331210136414, -0.21165315806865692, -0.062978640198707581, -0.026557084172964096, 0.038850713521242142, -0.014204481616616249, -0.13894572854042053, 0.27032560110092163, -0.053885985165834427, 0.22160989046096802, 0.090774394571781158, -0.0093418806791305542, 0.036834791302680969, -0.0064487126655876637, 0.12209859490394592, 0.28650423884391785, 0.1572435200214386, 0.24337475001811981, 0.074114762246608734, -0.056391164660453796, -0.01242390088737011, 0.35569086670875549, -0.019275050610303879, -0.10094374418258667, -0.076127350330352783, -0.091665521264076233, -0.087605342268943787, -0.080698698759078979, -0.079609453678131104, 0.22710327804088593, 0.058594495058059692, -0.23346610367298126, -0.10680742561817169, -0.068280041217803955, -0.13687601685523987, -0.023584969341754913, -0.054007235914468765, 0.0055004488676786423, -0.033098809421062469, -0.14715699851512909, -0.063930526375770569, -0.069100454449653625, 0.018211457878351212, 0.54060488939285278, -0.0042944042943418026, 0.522480309009552, -0.050169516354799271, -0.028572866693139076, 0.12821893393993378, 0.25402945280075073, 0.62347322702407837, -0.023999772965908051, 0.58227735757827759, -0.0097491974011063576, -0.10972419381141663, 0.042263224720954895, 0.033498577773571014, -0.004844288807362318, 0.098249293863773346, -0.011575371958315372, 0.095268286764621735, -0.070085026323795319, 0.0039915735833346844, -0.16227860748767853, -0.032839573919773102, 0.039295390248298645, -0.11963191628456116, 0.04836823046207428, 0.039773896336555481, 0.055639751255512238, -0.10997515171766281, -0.20023004710674286, 0.14782986044883728, -0.17354463040828705, 0.035892825573682785, -0.041985403746366501, -0.041571300476789474, -0.04428454115986824, 0.44155660271644592, -0.14412733912467957, 0.36261817812919617, 0.77852135896682739, -0.047645900398492813, 0.46390733122825623, -0.0062113930471241474, 0.28627637028694153, 0.27080807089805603, 0.46307241916656494, 0.17796988785266876, 0.027634948492050171, 0.17355541884899139, 0.02928440272808075, -0.19013336300849915, -0.11681276559829712, -0.013230905868113041, -0.22116029262542725, -0.066283650696277618, 3.8657624827465042e-05, 0.04891664907336235, 0.22749932110309601, 0.2308972179889679, 0.65926164388656616, -0.074159391224384308, 0.053068846464157104, 0.2439546138048172, -0.094590872526168823, -0.0064148828387260437, -0.064888603985309601, 0.45864987373352051, -0.074490398168563843, 0.82727682590484619, -0.070052780210971832, -0.025453381240367889, 0.49284395575523376, 0.23402811586856842, 0.23624072968959808, };
const TfArray<1, int> tensor_dimension5 = { 1, { 200 } };
const ALIGN(16) float tensor_data6[200*182] = { 
  -0.14379081130027771, 0.087411254644393921, 0.062916040420532227, -0.14424878358840942, 0.054519299417734146, 0.078843802213668823, -0.022165399044752121, 0.050623048096895218, 0.092447429895401001, 0.00098720903042703867, -0.17752072215080261, 0.047085132449865341, 0.074570797383785248, 0.044915810227394104, 0.062782935798168182, 0.080205969512462616, -0.055771555751562119, 0.018133731558918953, 0.012632906436920166, 0.13851016759872437, -0.075187429785728455, 0.008817475289106369, -0.023061545565724373, -0.083557873964309692, -0.11511919647455215, -0.024253653362393379, 0.04905952513217926, 0.079309336841106415, -0.17255017161369324, 0.083099052309989929, -0.091446809470653534, 0.054223429411649704, 0.11392933130264282, 0.084803037345409393, 0.059181638062000275, 0.0067944843322038651, 0.0033978878054767847, -0.13286890089511871, -0.078318245708942413, 0.029392633587121964, -0.11826798319816589, -0.096458032727241516, -0.14609894156455994, -0.085223369300365448, -0.10615727305412292, -0.078065782785415649, 0.02172105573117733, -0.073129817843437195, 0.028005817905068398, 0.02144918404519558, 0.1181723028421402, -0.070907324552536011, 0.04218195378780365, 0.033794425427913666, 0.047734789550304413, -0.18476054072380066, 0.070395737886428833, 0.12550024688243866, 0.028274079784750938, 0.044054072350263596, -0.17386451363563538, 0.055930141359567642, 0.063072875142097473, 0.027657488361001015, -0.14390267431735992, 0.053804468363523483, -0.12070654332637787, -0.14292144775390625, -0.1257006973028183, -0.0096631161868572235, 0.080637365579605103, -0.043103314936161041, 0.016346070915460587, 0.11178336292505264, -0.16502334177494049, 0.0059371148236095905, 0.011885847896337509, -0.038611043244600296, -0.0076844841241836548, -0.066708192229270935, 0.0067645036615431309, 0.13543027639389038, -0.011585420928895473, -0.02267441526055336, -0.14861118793487549, 0.0086790546774864197, -0.016414711251854897, 0.061164155602455139, -0.069913648068904877, -0.039933830499649048, -0.0075117368251085281, 0.10822924226522446, 0.080106958746910095, -0.11613932251930237, 0.023084118962287903, -0.0048554553650319576, -0.037071932107210159, 0.058080714195966721, -0.14830522239208221, 0.11039242893457413, -0.0010970662115141749, 0.11765116453170776, -0.072754889726638794, -0.089293062686920166, 0.050627954304218292, 0.11287226527929306, 0.042109299451112747, 0.037301342934370041, -0.15941266715526581, 0.032045893371105194, 0.041260167956352234, 0.09203309565782547, 0.053827740252017975, -0.038067694753408432, -0.035723034292459488, -0.0057458910159766674, 0.12587505578994751, -0.022111224010586739, 0.015221248380839825, -0.11137068271636963, 0.0074890516698360443, 0.13151055574417114, -0.1213475689291954, -0.070964150130748749, 0.052846230566501617, 0.075718790292739868, 0.042969521135091782, -0.013153703883290291, -0.079594239592552185, 0.0095708798617124557, 0.12399318069219589, -0.020971033722162247, 0.12633836269378662, -0.036696352064609528, 0.1363912969827652, -0.097172267735004425, -0.031361311674118042, 0.0044743926264345646, 0.16123560070991516, -0.053415369242429733, 0.05266818031668663, 0.023943116888403893, -0.088302426040172577, 0.062414620071649551, 0.011331590823829174, 0.0017261703033000231, -0.019579481333494186, 0.19187167286872864, 0.1354176253080368, -0.11621876806020737, -0.14159664511680603, 0.040989700704813004, 0.056216519325971603, 0.10012918710708618, 0.14110782742500305, -0.073144964873790741, -0.022765936329960823, 0.023627456277608871, -0.020586790516972542, -0.094746358692646027, -0.023105809465050697, 0.016710054129362106, -0.047819096595048904, 0.099118649959564209, -0.053600706160068512, -0.11693014204502106, -0.0084665734320878983, 0.084911301732063293, 0.050338346511125565, -0.014809895306825638, -0.016872113570570946, 0.085016347467899323, -0.15785546600818634, 0.056269869208335876, -0.002829420380294323, 0.090270757675170898, 0.030257109552621841, 0.050559114664793015, -0.023691974580287933, -0.095259495079517365, -0.0066140424460172653, 0.11058684438467026, 
  0.010338408872485161, 0.11545643955469131, 0.013794493861496449, 0.2063976526260376, -0.031476199626922607, -0.00054938934044912457, 0.12426040321588516, -0.096935249865055084, 0.12706974148750305, 0.090310007333755493, 0.011511948890984058, -0.081159427762031555, 0.10542616248130798, 0.040557380765676498, 0.060954861342906952, 0.02237953245639801, 0.023961678147315979, 0.10653206706047058, 0.021213872358202934, 0.033028926700353622, -0.025138525292277336, 0.023755684494972229, 0.13077190518379211, 0.19066435098648071, 0.090123876929283142, -0.1517871618270874, 0.063030630350112915, 0.099521026015281677, 0.067801773548126221, -0.0068039796315133572, 0.12835022807121277, -0.1148429736495018, 0.10746252536773682, 0.076213479042053223, 0.15746293962001801, 0.034522384405136108, 0.07050006091594696, 0.081091664731502533, -0.12917394936084747, -0.04890253022313118, 0.024721443653106689, -0.031623736023902893, -0.053801529109477997, -0.0057789729908108711, 0.095972530543804169, -0.02158740907907486, 0.053574331104755402, -0.090714864432811737, -0.0029975865036249161, -0.10231760144233704, 0.075539387762546539, -0.10618274658918381, 0.11027117818593979, 0.067237548530101776, 0.099114313721656799, 0.16088318824768066, -0.069807179272174835, -0.13202682137489319, 0.099202275276184082, -0.084383614361286163, 0.001104261726140976, 0.1374218761920929, 0.17743635177612305, -0.15215471386909485, 0.12347845733165741, 0.13340716063976288, -0.071990929543972015, 0.10981062054634094, -0.15429961681365967, 0.11764976382255554, 0.18972650170326233, -0.091573439538478851, -0.091463416814804077, -0.17016784846782684, 0.05011255294084549, -0.056448746472597122, 0.088451281189918518, 0.018248533830046654, 0.20775015652179718, 0.048186704516410828, -0.090823151171207428, -0.12343328446149826, 0.07359517365694046, 0.041432574391365051, -0.031256172806024551, 0.045086663216352463, -0.039822779595851898, 0.20914758741855621, -0.032411161810159683, -0.036278083920478821, 0.03545452281832695, 0.13678906857967377, -0.073259852826595306, 0.053150005638599396, -0.12610238790512085, 0.087833493947982788, -0.019588854163885117, 0.11962323635816574, -0.030737506225705147, 0.017911396920681, 0.0048551908694207668, -0.0041363527998328209, 0.063597872853279114, 0.092924036085605621, 0.049135148525238037, -0.0097351651638746262, -0.05739424005150795, 0.090088233351707458, -0.068439163267612457, 0.029730705544352531, -0.10608868300914764, -0.092931389808654785, 0.026025872677564621, 0.038296271115541458, 0.090720407664775848, 0.044608119875192642, 0.022577853873372078, -0.053731359541416168, 0.21496276557445526, 0.11341096460819244, -0.19608737528324127, 0.093848466873168945, -0.010303616523742676, 0.0062311436049640179, -0.030361395329236984, -0.05599994957447052, 0.016549378633499146, -0.028773684054613113, -0.0052587641403079033, 0.039812233299016953, 0.11121753603219986, -0.02543257549405098, 0.0088207954540848732, 0.0066304574720561504, 0.12035991251468658, -0.048911683261394501, 0.090422019362449646, 0.071805767714977264, 0.055060122162103653, -0.01417958177626133, 0.041701100766658783, 0.048724833875894547, 0.0078721847385168076, -0.020823629572987556, -0.091750890016555786, 0.048545911908149719, -0.013681948184967041, 0.13799786567687988, 0.042364977300167084, 0.054033946245908737, 0.056236326694488525, -0.018989782780408859, 0.032209370285272598, -0.087736047804355621, 0.016313247382640839, 0.10766812413930893, 0.035353396087884903, 0.10706610977649689, 0.025366257876157761, 0.016598988324403763, 0.021132590249180794, -0.081269420683383942, 0.09593413770198822, 0.088739745318889618, -0.027167478576302528, 0.03159288689494133, 0.078263871371746063, 0.029848735779523849, 0.072539910674095154, -0.025565557181835175, -0.04223526269197464, -0.039667200297117233, -0.0090970825403928757, -0.083176888525485992, 0.0077399197034537792, 0.099304132163524628, 0.040588654577732086, 0.095702305436134338, 0.037522822618484497, -0.055774450302124023, 0.10019485652446747, 0.039595004171133041, 
  -0.019539540633559227, -0.093207709491252899, 0.035383719950914383, -0.16344316303730011, 0.090032748878002167, 0.22693689167499542, 0.03282644972205162, 0.12944942712783813, -0.045585200190544128, -0.0057268142700195312, -0.17361569404602051, -0.023071877658367157, 0.16706357896327972, 0.15010178089141846, -0.067264147102832794, -0.014259866438806057, 4.1796072764554992e-05, -0.020519103854894638, 0.0064297984354197979, 0.0042750411666929722, 0.050065711140632629, 0.099899217486381531, -0.022348653525114059, -0.1162412166595459, -0.0098793832585215569, 0.015824552625417709, -0.0047388509847223759, 0.12424160540103912, 0.071123890578746796, 0.066554196178913116, -0.16550503671169281, 0.1207955926656723, -0.054797880351543427, 0.0544600710272789, -0.036022204905748367, -0.068466700613498688, 0.041965428739786148, 0.13170097768306732, -0.07143903523683548, 0.050531722605228424, 0.074984408915042877, 0.15068730711936951, -0.036656070500612259, 0.045013580471277237, 0.048902187496423721, 0.078803598880767822, 0.13200680911540985, 0.095104306936264038, -0.049392230808734894, -0.020814947783946991, 0.018156902864575386, 0.073157355189323425, -0.086202949285507202, 0.094544589519500732, -0.12284553050994873, 0.0037953129503875971, -0.099895372986793518, -0.045486614108085632, -0.084755145013332367, -0.019086219370365143, -0.1731315553188324, -0.081614896655082703, 0.042120389640331268, 0.090626955032348633, -0.12985363602638245, -0.018096078187227249, 0.037138491868972778, 0.03891594335436821, -0.073519267141819, 0.099585473537445068, 0.12930874526500702, -0.0061796447262167931, 0.061665643006563187, -0.00087202165741473436, -0.1076226681470871, 0.012954451143741608, 0.03245135024189949, 0.017296425998210907, -0.026566125452518463, -0.063200674951076508, 0.0003252647293265909, -0.080027565360069275, 0.098924145102500916, 0.024465441703796387, 0.041062276810407639, 0.092511802911758423, -0.027386598289012909, -0.12023469060659409, -0.099058873951435089, -0.076459974050521851, -0.078300759196281433, 0.031417414546012878, 0.072296604514122009, 0.039153773337602615, -0.030902620404958725, -0.054565448313951492, 0.10255479067564011, -0.11160743981599808, -0.0079479515552520752, -0.030954370275139809, -0.096485242247581482, 0.00012183960643596947, -0.06521742045879364, -0.069687336683273315, -0.034042976796627045, -0.012819706462323666, -0.052433513104915619, 0.096586622297763824, -0.068175248801708221, 0.076207160949707031, 0.0037995812017470598, -0.075539782643318176, -0.017510101199150085, -0.056088041514158249, -0.048301786184310913, -0.091392695903778076, 0.044442214071750641, -0.095960021018981934, -0.16520191729068756, 0.11963014304637909, 0.099700063467025757, -0.13201987743377686, -0.085010774433612823, -0.0061142602935433388, 0.13105067610740662, 0.11860997229814529, 0.12991209328174591, -0.12228484451770782, -0.025019736960530281, 0.023651935160160065, 0.025832435116171837, 0.017025506123900414, -0.081725418567657471, 0.071281567215919495, -0.045359391719102859, 0.14108635485172272, 0.083199150860309601, 0.014020581729710102, 0.10913239419460297, 0.11286436021327972, -0.013373261317610741, -0.0072293323464691639, 0.0097519578412175179, -0.13605476915836334, 0.056511566042900085, 0.15308982133865356, 0.09017559140920639, 0.068517252802848816, 0.14543372392654419, -0.046888623386621475, -0.0067949448712170124, 0.13238854706287384, 0.00015820840781088918, -0.076920114457607269, -0.023254351690411568, -0.040083926171064377, 0.020963754504919052, -0.048672445118427277, 0.073747649788856506, -0.0032926399726420641, 0.058737412095069885, 0.092574074864387512, -0.031442839652299881, 0.071610085666179657, 0.02118382602930069, 0.12988400459289551, -0.00024925853358581662, 0.11489704251289368, 0.099808558821678162, 0.10290960967540741, 0.14447197318077087, -0.099730536341667175, -0.025546327233314514, -0.062113337218761444, 0.090189144015312195, -0.093510128557682037, 0.18317016959190369, 0.1209920346736908, 0.069669559597969055, -0.061803072690963745, -0.015148002654314041, 0.020999517291784286, 
  -0.12957912683486938, 0.0032092479523271322, -0.15092733502388, 0.021163070574402809, -0.026350609958171844, 0.08301272988319397, -0.11652867496013641, 0.063910149037837982, 0.052289761602878571, -0.039276674389839172, -0.058313649147748947, 0.075282007455825806, 0.028417352586984634, -0.034588973969221115, 0.0058889300562441349, 0.13254852592945099, -0.021332990378141403, -0.093650542199611664, 0.070041649043560028, -0.01649978943169117, -0.088167421519756317, -0.074314422905445099, -0.00084809772670269012, 0.13944824039936066, -0.12190212309360504, -0.054512333124876022, 0.11579951643943787, 0.14647486805915833, -0.064583361148834229, -0.078201711177825928, 0.098429962992668152, 0.067170180380344391, -0.11914053559303284, 0.0033735099714249372, -0.056189123541116714, -0.083949871361255646, -0.026596929877996445, 0.046972595155239105, -0.024172192439436913, -0.098749332129955292, -0.099520176649093628, -0.056700512766838074, -0.16131231188774109, -0.031818747520446777, 0.086606644093990326, 0.0090267183259129524, -0.024474674835801125, 0.12099753320217133, -0.098984554409980774, -0.010930702090263367, 0.016829514876008034, -0.071013540029525757, -0.03300163522362709, -0.037182513624429703, -0.11636576801538467, 0.15857936441898346, 0.020356426015496254, -0.096810370683670044, -0.0052886651828885078, 0.035722024738788605, 0.050986964255571365, 0.099674873054027557, -0.035439550876617432, -0.054214876145124435, 0.099830277264118195, -0.048958614468574524, -0.076646238565444946, -0.0052460143342614174, -0.043211910873651505, -0.077106267213821411, -0.051335267722606659, 0.14217709004878998, -0.031072286888957024, 0.14760957658290863, 0.036032155156135559, -0.02220616489648819, 0.0025502496864646673, 0.074856966733932495, 0.10920683294534683, -0.053933717310428619, -0.088966622948646545, -0.019858784973621368, 0.031307045370340347, -0.029272455722093582, -0.052801124751567841, -0.0034621856175363064, -0.084278009831905365, -0.070149153470993042, -0.067347154021263123, 0.086289167404174805, -0.0044955913908779621, 0.091204456984996796, 0.021687887609004974, 0.090054906904697418, 0.034465838223695755, 0.078190527856349945, 0.035780422389507294, 0.081251077353954315, -0.10148334503173828, -0.046116489917039871, 0.016819247975945473, 0.1084955558180809, -0.12167151272296906, -0.099863909184932709, -0.076091542840003967, -0.038004260510206223, -0.17140002548694611, 0.02637377567589283, -0.10412859171628952, -0.026712071150541306, 0.04891267791390419, 0.024298220872879028, -0.13014300167560577, 0.0067361150868237019, -0.080994211137294769, 0.11865458637475967, -0.068782225251197815, 0.028564956039190292, -0.012239200063049793, 0.014388306997716427, -0.05306847020983696, 0.090095788240432739, -0.0068568959832191467, -0.11214914917945862, 0.092220127582550049, -0.011375278234481812, -0.040941119194030762, 0.092069894075393677, -0.091682523488998413, -0.038827676326036453, -0.07945597916841507, 0.031745228916406631, 0.14133228361606598, 0.13341479003429413, -0.096747428178787231, 0.10526745766401291, 0.027756405994296074, 0.097887501120567322, -0.073245465755462646, -0.03278692439198494, 0.061399616301059723, -0.012085852213203907, -0.0056989607401192188, -0.068618543446063995, 0.059415180236101151, 0.10359591990709305, 0.096112623810768127, 0.071266144514083862, 0.098032325506210327, 0.0025688235182315111, 0.0051311408169567585, 0.10716576129198074, 0.0062382104806602001, 0.026063106954097748, -0.1205609068274498, -0.079219996929168701, 0.010671726427972317, 0.14469358325004578, 0.13729365170001984, -0.00029661564622074366, 0.11498667299747467, 0.069640539586544037, 0.13237641751766205, 0.011144831776618958, -0.097251512110233307, -0.065268963575363159, 0.039526909589767456, 0.072499938309192657, 0.087579905986785889, -0.033147908747196198, -0.10658556967973709, 0.12880221009254456, -0.019131436944007874, 0.07623647153377533, 0.046561684459447861, -0.038805071264505386, 0.13262748718261719, -0.0093722380697727203, 0.065610110759735107, -0.04849763959646225, 0.055649474263191223, 0.011015291325747967, 
  -0.0085591115057468414, 0.037525061517953873, 0.014061304740607738, -0.0039723641239106655, 0.048619873821735382, 0.064003080129623413, -0.095062322914600372, -0.046553421765565872, -0.030458655208349228, -0.077012971043586731, -0.074910879135131836, 0.055254172533750534, -0.077850133180618286, -0.063179001212120056, 0.018885759636759758, -0.059995904564857483, -0.035437751561403275, 0.12007732689380646, -0.0018127192743122578, -0.046002905815839767, -0.046373531222343445, 0.04400799423456192, 0.017064891755580902, -0.025238931179046631, 0.0037783596199005842, 0.071454599499702454, -0.046257354319095612, -0.046097047626972198, -0.12769563496112823, -0.046697992831468582, -0.077164866030216217, -0.097786694765090942, -0.050602380186319351, -0.020643211901187897, 0.063565060496330261, 0.074653826653957367, 0.10000701248645782, 0.10021979361772537, -0.055822663009166718, 0.040347050875425339, -0.016946801915764809, 0.11511076241731644, 0.062077373266220093, 0.084686234593391418, -0.04019806906580925, -0.038843486458063126, -0.094249352812767029, -0.06310301274061203, 0.00013416091678664088, -0.045898698270320892, -0.095365516841411591, 0.075705595314502716, 0.11826138198375702, 0.067468352615833282, 0.039954423904418945, -0.032653216272592545, 0.10375512391328812, -0.053126025944948196, -0.10365883260965347, -0.021234486252069473, -0.0049427300691604614, -0.0084088286384940147, -0.11195545643568039, 0.098746880888938904, -0.028219830244779587, -0.0024235954042524099, 0.011915536597371101, 0.011478781700134277, 0.00046598378685303032, 0.034620068967342377, 0.10661521553993225, 0.11729563027620316, -0.079016551375389099, -0.097554579377174377, 0.11556166410446167, 0.0091542620211839676, 0.093272827565670013, 0.034929011017084122, 0.012316259555518627, -0.10886257141828537, -0.026123572140932083, 0.019707104191184044, -0.042496185749769211, 0.088037803769111633, 0.075745262205600739, -0.031230008229613304, 0.11518362909555435, -0.011046995408833027, -0.032021079212427139, 0.10269331932067871, -0.052041228860616684, 0.036715462803840637, -0.068149849772453308, 0.040842540562152863, 0.092434391379356384, -0.052596013993024826, -0.11665372550487518, -0.09016110748052597, 0.07043813169002533, -0.083768196403980255, -0.07579386979341507, -0.013049251399934292, -0.079828538000583649, 0.10617853701114655, -0.105123370885849, 0.10813648998737335, -0.10798600316047668, 0.112993523478508, -0.1231568306684494, -0.029025893658399582, 0.0087048346176743507, -0.020280571654438972, 0.10086972266435623, 0.10708437114953995, 0.10287797451019287, 0.12489622086286545, -0.037626378238201141, 0.0067969094961881638, 0.11603847146034241, -0.057907838374376297, 0.088518336415290833, -0.006566416472196579, 0.056428339332342148, 0.043443590402603149, 0.083145752549171448, -0.046973340213298798, 0.012194800190627575, 0.12175343185663223, 0.10837188363075256, 0.036502610892057419, 0.013250876218080521, 0.056218653917312622, 0.035782486200332642, 0.065069757401943207, -0.034021373838186264, -0.0089399414137005806, 0.069890521466732025, -0.048314947634935379, -0.078285165131092072, -0.051240060478448868, 0.083010278642177582, 0.092644937336444855, -0.10465273261070251, 0.094168677926063538, 0.02494802325963974, 0.078012704849243164, -0.03790152445435524, -0.0061306278221309185, 0.0090847630053758621, 0.046704769134521484, 0.066588960587978363, -0.10333453863859177, 0.10764673352241516, 0.060603894293308258, 0.077886700630187988, 0.12192524969577789, -0.094662211835384369, 0.11040574312210083, 0.0073306448757648468, 0.021806135773658752, 0.11954443901777267, -0.023715801537036896, -0.10242016613483429, 0.097195014357566833, -0.005412739235907793, 0.1241774708032608, 0.043704912066459656, 0.093596361577510834, 0.065105095505714417, -0.055712059140205383, -0.017785564064979553, 0.0087949708104133606, 0.093944951891899109, -0.057732347398996353, 0.057982590049505234, -0.031107688322663307, -0.048665393143892288, 0.098241128027439117, 0.079377114772796631, -0.038201186805963516, 0.04223579540848732, 0.1033298447728157, 
  0.059638123959302902, -0.07354871928691864, -0.075472801923751831, 0.046047743409872055, -0.010586782358586788, -0.013123215176165104, -0.041734296828508377, -0.11154742538928986, -0.11768475919961929, 0.04151386022567749, -0.01016157865524292, 0.010444759391248226, -0.097727425396442413, -0.040852855890989304, -0.029969474300742149, -0.013122608885169029, 0.016054367646574974, 0.030259056016802788, -0.0031059756875038147, -0.043000906705856323, -0.11161312460899353, -0.072214841842651367, 0.062769457697868347, 0.0026588574983179569, 0.1017114445567131, -0.10190760344266891, -0.083917148411273956, -0.034598600119352341, 0.06430981308221817, -0.11368448287248611, -0.13135309517383575, 0.11178836971521378, 0.083596020936965942, -0.076279826462268829, 0.1010277271270752, 0.10392005741596222, -0.062776863574981689, 0.017830094322562218, 0.039469555020332336, -0.1067613810300827, -0.02878357470035553, 0.029444651678204536, 0.022159019485116005, 0.10889817774295807, -0.041343551129102707, 0.10407385230064392, -0.11180557310581207, 0.10602777451276779, -0.028397934511303902, 0.079018749296665192, -0.10178296267986298, 0.093569301068782806, -0.03893696516752243, 0.091552592813968658, 0.11153428256511688, -0.048823323100805283, -0.11949839442968369, -0.050395749509334564, 0.091373041272163391, -0.044542480260133743, -0.04276840016245842, 0.018011005595326424, -0.034324906766414642, 0.055749431252479553, 0.017621906474232674, -0.061902333050966263, -0.10811596363782883, 0.00059278041590005159, -0.12442982941865921, -0.096957661211490631, -0.045747008174657822, -0.014055184088647366, -0.047483440488576889, 0.084252744913101196, 0.096573047339916229, 0.10254736244678497, 0.062026128172874451, -0.093358427286148071, -0.060169756412506104, -0.024241311475634575, -0.053095519542694092, 0.035013340413570404, 0.098962336778640747, 0.071986861526966095, -0.070014014840126038, -0.07437298446893692, 0.093160457909107208, 0.081691175699234009, -0.12546822428703308, 0.077172175049781799, -0.12698762118816376, -0.0057597067207098007, -0.038637325167655945, -0.039029795676469803, 0.081532083451747894, -0.061684351414442062, -0.0029949524905532598, 0.013799387030303478, -0.11756546050310135, 0.088738210499286652, 0.077454254031181335, 0.03873048722743988, -0.023571139201521873, -0.032411586493253708, -0.13362444937229156, 0.090860515832901001, -0.075143441557884216, 0.055769357830286026, 0.017084576189517975, 0.024516044184565544, -0.03640732541680336, -0.075846351683139801, -0.12677016854286194, 0.071678124368190765, -0.10482601076364517, 0.089196361601352692, -0.083026677370071411, -0.061452858150005341, -0.078325472772121429, 0.013029213063418865, -0.04127052053809166, 0.065747082233428955, -0.068272814154624939, 0.12711457908153534, 0.038579005748033524, 0.089651286602020264, 0.094924785196781158, 0.1296018660068512, -0.10288795083761215, -0.013790372759103775, 0.0098813660442829132, 0.072606854140758514, -0.10120833665132523, 0.010562984272837639, -0.051178466528654099, 0.071380890905857086, 0.09734480082988739, -0.068193018436431885, -0.0085518881678581238, -0.054678075015544891, 0.10216426849365234, -0.033952895551919937, 0.10988479107618332, 0.012068727985024452, 0.11585681140422821, 0.041138269007205963, -0.0028963126242160797, -0.02595885843038559, 0.077802687883377075, 0.049601588398218155, -0.033118803054094315, 0.031692240387201309, 0.035583861172199249, 0.041117295622825623, 0.10037431865930557, 0.10228708386421204, 0.02371511235833168, -0.072866939008235931, 0.081346988677978516, 0.03406485915184021, -0.10665609687566757, 0.060269366949796677, 0.10109397768974304, -0.061142232269048691, -0.10138119757175446, 0.061836697161197662, 0.031687572598457336, -0.057619459927082062, -0.032485391944646835, -0.11075755208730698, 0.12192299962043762, -0.040550719946622849, -0.031354296952486038, 0.068837814033031464, -0.10709483921527863, 0.1062953993678093, -0.096697278320789337, 0.0015261837979778647, 0.12632904946804047, 0.014436808414757252, -0.038444500416517258, 0.028350589796900749, 
  -0.079492159187793732, -0.085794620215892792, 0.06181001290678978, 0.11055005341768265, 0.14049766957759857, -0.013620935380458832, 0.081000097095966339, -0.16072404384613037, 0.12924946844577789, -0.075128942728042603, 0.037735778838396072, 0.055371973663568497, 0.11532150208950043, -0.13624732196331024, 0.10514120012521744, -0.033830989152193069, -0.057736244052648544, -0.18173621594905853, 0.12085217237472534, -0.17887674272060394, -0.00011415899643907323, -0.047244228422641754, -0.083020441234111786, -0.062414143234491348, -0.05889178067445755, -0.14149349927902222, 0.08245386928319931, -0.095738880336284637, 0.081518009305000305, 0.08545047789812088, -0.023820605129003525, -0.034014970064163208, -0.067561842501163483, -0.033272508531808853, 0.036034230142831802, -0.0063472110778093338, 0.073387369513511658, -0.14203909039497375, -0.073979847133159637, 0.092732898890972137, 0.0089336885139346123, -0.12421399354934692, 0.14007212221622467, -0.10100273787975311, 0.042990397661924362, 0.11656238883733749, 0.20966021716594696, -0.069584019482135773, 0.0027459103148430586, 0.046021521091461182, 0.071805126965045929, -0.10189864039421082, 0.16443540155887604, -0.013043091632425785, 0.19742500782012939, 0.025397606194019318, -0.064217902719974518, -0.1488172858953476, 0.085986196994781494, 0.026633154600858688, -0.10306515544652939, 0.11743175238370895, 0.031770732253789902, 0.006262047216296196, 0.10328329354524612, 0.017687138170003891, -0.057213291525840759, 0.05540233850479126, -0.0056700040586292744, 0.05879022553563118, -0.059797510504722595, -0.046970635652542114, 0.088099099695682526, -0.028829758986830711, -0.075837783515453339, -0.039910107851028442, 0.11703347414731979, 0.041705343872308731, 0.12081438302993774, -0.0067601879127323627, 0.13125656545162201, -0.1120140329003334, 0.024026555940508842, 0.079135008156299591, -0.10409343987703323, 0.015886871144175529, 0.11998724937438965, 0.067657850682735443, -0.037145126610994339, 0.067665986716747284, -0.023202875629067421, 0.14483509957790375, -0.086718529462814331, 0.12597213685512543, 0.007597475778311491, -0.016125457361340523, -0.014230816625058651, 0.067702963948249817, -0.0069222468882799149, 0.19108191132545471, -0.006757181603461504, 0.14924734830856323, -0.043384011834859848, 0.13511800765991211, 0.065119095146656036, 0.081579014658927917, 0.0061451881192624569, 0.10767678916454315, -0.12422877550125122, 0.0071449009701609612, -0.19977279007434845, 0.0030159545131027699, -0.040228746831417084, 0.024888224899768829, 0.097823560237884521, 0.079423926770687103, 0.080665916204452515, 0.04018678143620491, 0.10113994032144547, 0.15418979525566101, 0.019619075581431389, 0.051697932183742523, 0.017474168911576271, -0.03150612860918045, -0.037586882710456848, -0.078091330826282501, 0.08865153044462204, 0.096635662019252777, 0.14689290523529053, 0.08024328202009201, 0.24480006098747253, -0.026315726339817047, 0.19615522027015686, 0.027363821864128113, -0.041619043797254562, -0.15417823195457458, 0.081231996417045593, 0.10655238479375839, 0.17828436195850372, 0.0015983351040631533, 0.16329865157604218, -0.10111869126558304, 0.17512814700603485, 0.088576287031173706, -0.015144297853112221, 0.073098763823509216, -0.056137025356292725, -0.046707425266504288, 0.050388194620609283, 0.050966754555702209, 0.034724801778793335, 0.066070176661014557, 0.083429545164108276, -0.076166927814483643, 0.0045110476203262806, 0.037654437124729156, 0.13862118124961853, 0.047812741249799728, 0.071793541312217712, 0.082343809306621552, -0.069400586187839508, -0.10022405534982681, -0.00959798414260149, 0.088182203471660614, -0.0012607612879946828, 0.070270687341690063, 0.09588315337896347, -0.039658140391111374, 0.061383385211229324, -0.13962508738040924, 0.15992306172847748, 0.0061798933893442154, -0.024471566081047058, 0.0088159078732132912, 0.12090305984020233, -0.15407198667526245, -0.065796360373497009, -0.076234959065914154, 0.12907068431377411, -0.10184232890605927, 0.10152361541986465, -0.16889150440692902, 
  -0.059210550040006638, 0.061013970524072647, -0.055986102670431137, -0.11287284642457962, 0.0026932458858937025, 0.10960704833269119, -0.02657773345708847, -0.13221751153469086, 0.076226502656936646, -0.11699435114860535, -0.12432549148797989, 0.11000821739435196, 0.015417482703924179, -0.015147332102060318, -0.093890435993671417, -0.1351981908082962, 0.036438815295696259, 0.046790394932031631, -0.077216207981109619, -0.022403893992304802, -0.03106219694018364, 0.030977904796600342, 0.11246071755886078, -0.008765428327023983, -0.13610158860683441, 0.078689694404602051, 0.038756761699914932, -0.085278898477554321, 0.096996180713176727, 0.050206001847982407, 0.082500189542770386, -0.032966483384370804, -0.044876158237457275, 0.086748071014881134, -0.086761847138404846, -0.068522326648235321, -0.11113299429416656, 0.0026866174302995205, -0.054788779467344284, 0.060593605041503906, 0.095541238784790039, -0.020973609760403633, 0.034693576395511627, 0.063942857086658478, -0.12752360105514526, -0.0035546864382922649, -0.0090601202100515366, -0.066087909042835236, -0.088501594960689545, 0.10942862927913666, 0.029845960438251495, -0.092244595289230347, -0.11503227055072784, -0.012917731888592243, -0.12276166677474976, 0.029615132138133049, -0.00025764649035409093, -0.0010907022515311837, 0.033217981457710266, 0.028028272092342377, -0.093279071152210236, -0.0059272879734635353, -0.017931465059518814, 0.052811689674854279, -0.0022390305530279875, 0.021475043147802353, 0.047983776777982712, 0.094111181795597076, -0.014675960876047611, -0.074386492371559143, -0.0011740972986444831, 0.06595398485660553, 0.12699326872825623, -0.10701189190149307, -0.041166741400957108, 0.077625811100006104, -0.04804152250289917, 0.051980171352624893, -0.092972487211227417, 0.058431860059499741, -0.11448328942060471, 0.0501096211373806, 0.022222688421607018, 0.11308785527944565, -0.021205231547355652, 0.021346494555473328, -0.080336131155490875, 0.025127017870545387, 0.017769793048501015, -0.070686466991901398, -0.046151157468557358, 0.066803254187107086, -0.059328168630599976, -0.11885383725166321, -0.039545103907585144, 0.094626247882843018, 0.018719647079706192, -0.034425891935825348, -0.089300945401191711, 0.11991170048713684, 0.065942995250225067, -0.087864100933074951, 0.10404972732067108, -0.054606340825557709, 0.084067761898040771, 0.083823353052139282, -0.097888953983783722, -0.024436842650175095, -0.055032398551702499, 0.038805447518825531, 0.094957068562507629, -0.051539488136768341, -0.0128723019734025, 0.099938303232192993, -0.10518155246973038, 0.11850897222757339, -0.074812076985836029, 0.00033648445969447494, 0.10915293544530869, 0.090003021061420441, 0.099931567907333374, 0.082530692219734192, -0.073445886373519897, -0.040816579014062881, 0.13007092475891113, 0.088305391371250153, 0.019259421154856682, 0.056191086769104004, -0.033537700772285461, -0.028018001466989517, 0.12288112193346024, -0.089002728462219238, 0.10333961993455887, 0.11359106004238129, 0.062454015016555786, -0.080331265926361084, 0.068412795662879944, 0.12942774593830109, -0.074055500328540802, -0.026513610035181046, -0.01288618054240942, 0.12781733274459839, 0.1125359982252121, -0.016334362328052521, 0.038917209953069687, 0.110350601375103, 0.04926106333732605, 0.11587081849575043, 0.11021196842193604, -0.062212806195020676, 0.037356410175561905, -0.099663995206356049, 0.07346082478761673, 0.03926815465092659, -0.087641365826129913, -0.10665149241685867, -0.022225718945264816, -0.0099480655044317245, 0.092424601316452026, -0.096855282783508301, -0.028831630945205688, 0.1070871502161026, 0.043106339871883392, 0.071571573615074158, -0.0066110291518270969, 0.088994279503822327, -0.087500832974910736, 0.13928221166133881, 0.052751023322343826, 0.072683952748775482, 0.046129945665597916, 0.082203201949596405, 0.13552661240100861, 0.0085878800600767136, 0.058164115995168686, -0.11044351756572723, 0.077423073351383209, 0.080431215465068817, 0.061044216156005859, -0.10120642185211182, 0.063498504459857941, 0.098855853080749512, 
  0.088334158062934875, -0.11870100349187851, 0.04849686473608017, 0.04688594862818718, 0.12071237713098526, -0.12739385664463043, 0.038366306573152542, 0.017907604575157166, -0.034222729504108429, 0.1115589514374733, 0.16556820273399353, -0.069002650678157806, 0.028841070830821991, -0.051226653158664703, 0.11150745302438736, 0.11759663373231888, 0.045415934175252914, -0.083738997578620911, 0.1482374370098114, -0.14369820058345795, 0.11600496619939804, -0.1494942307472229, 0.046923927962779999, 0.18241173028945923, 0.18323615193367004, -0.061588555574417114, 0.051433298736810684, 0.039161048829555511, -0.046550970524549484, 0.094466574490070343, -0.054878700524568558, -0.03681158646941185, -0.024940095841884613, 0.080252766609191895, 0.061215411871671677, 0.011198953725397587, -0.076901733875274658, -0.05518866702914238, 0.17044642567634583, -0.028856633231043816, 0.089252091944217682, -0.0078700687736272812, -0.059607356786727905, -0.11412053555250168, 0.095853395760059357, 0.0011905404971912503, 0.092964515089988708, -0.006081804633140564, -0.04755730926990509, 0.041551195085048676, -0.062667310237884521, -0.10774824768304825, 0.062035374343395233, -0.071955092251300812, 0.13291075825691223, -0.10946275293827057, -0.012491633184254169, 0.03587910532951355, 0.047314956784248352, -0.14720916748046875, 0.067428566515445709, -0.018614677712321281, 0.086343057453632355, -0.13291339576244354, -0.08272850513458252, 0.057500191032886505, -0.029274523258209229, -0.033859811723232269, -0.056309215724468231, 0.040674753487110138, 0.020962456241250038, -0.14227260649204254, 0.06081642210483551, -0.085364155471324921, 0.07614443451166153, -0.092489689588546753, -0.010932056233286858, -0.016549812629818916, 0.11465059965848923, -0.13431867957115173, 0.074595615267753601, 0.061155974864959717, -0.059731394052505493, 0.035842683166265488, -0.073137499392032623, -0.033654805272817612, -0.07498476654291153, -0.072500549256801605, 0.098519705235958099, -0.076815932989120483, 0.10615707188844681, 0.059982046484947205, -0.15843686461448669, -0.079151511192321777, -0.065464511513710022, 0.038414806127548218, -0.10220356285572052, 0.12575055658817291, 0.10653598606586456, 0.16725803911685944, -0.11083995550870895, 0.11993000656366348, 0.040493447333574295, 0.19735074043273926, -0.024127252399921417, -0.01546377781778574, -0.037863783538341522, 0.043293401598930359, 0.077716201543807983, -0.063799887895584106, -0.22408844530582428, 0.076433971524238586, -0.12636372447013855, -0.023019896820187569, 0.024944964796304703, 0.03126198798418045, 0.063472427427768707, 0.061736047267913818, -0.085060581564903259, -0.031122157350182533, -0.032045681029558182, 0.13633815944194794, 0.019670449197292328, 0.056998245418071747, -0.0052319718524813652, -0.054698236286640167, -0.019382094964385033, 0.096661947667598724, -0.036484457552433014, 0.059439476579427719, -0.089031137526035309, 0.10786964744329453, 0.066203191876411438, 0.13245368003845215, 0.19164605438709259, 0.12530575692653656, 0.081036359071731567, -0.070211388170719147, 0.070641361176967621, -0.018181147053837776, 0.11993373185396194, 0.13716703653335571, -0.0072865183465182781, -0.0092319203540682793, 0.01027381420135498, -0.078499071300029755, -0.017429471015930176, 0.0060620391741394997, -0.017125006765127182, 0.021692395210266113, 0.096278056502342224, -0.027449054643511772, 0.13470397889614105, 0.011957596056163311, -0.03135395422577858, 0.044798769056797028, -0.0025322732981294394, 0.089221768081188202, -0.091339558362960815, -0.049580015242099762, -0.088775202631950378, 0.11250529438257217, -0.021575592458248138, 0.066750667989253998, 0.18015375733375549, 0.0012273697648197412, 0.098380044102668762, 0.10885564237833023, -0.068473927676677704, -0.0624505914747715, -0.014514641836285591, -0.07160351425409317, -0.025322133675217628, 0.038498666137456894, 0.11430498212575912, -0.075902789831161499, 0.042152911424636841, -0.034766405820846558, -0.033980503678321838, -0.096981003880500793, 0.10210928320884705, 0.033843666315078735, 
  -0.0056172157637774944, 0.037563115358352661, 0.074860729277133942, -0.10330342501401901, -0.10553578287363052, 0.02490653470158577, -0.098831020295619965, 0.039147909730672836, 0.0071525499224662781, -0.15181839466094971, 0.034649461507797241, -0.12073758989572525, 0.050597917288541794, 0.098490528762340546, 0.054336469620466232, 0.013107135891914368, 0.052807111293077469, -0.077220290899276733, -0.070095047354698181, -0.009062252938747406, -0.05114765465259552, -0.024284578859806061, -0.0022188033908605576, -0.012934288010001183, -0.0026034985203295946, 0.025443172082304955, -0.13074204325675964, -0.14518657326698303, 0.078339487314224243, 0.081926390528678894, -0.1193087175488472, 0.21164126694202423, -0.10891566425561905, 0.044728629291057587, -0.067571207880973816, 0.010081264190375805, -0.10806044191122055, 0.063605926930904388, -0.055744629353284836, 0.03581416979432106, 0.054423067718744278, 0.028019523248076439, -0.12773379683494568, 0.086298912763595581, 0.010362719185650349, 0.1293359100818634, -0.063376374542713165, 0.13895526528358459, 0.059246387332677841, 0.1098642498254776, 0.061767403036355972, 0.12131539732217789, -0.050235375761985779, -0.055798690766096115, -0.1184307187795639, -0.010938483290374279, 0.058678466826677322, 0.20967152714729309, -0.024455422535538673, -0.023286076262593269, 0.002734191482886672, 0.11334171891212463, -0.052529674023389816, -0.078787855803966522, 0.044337581843137741, 0.1576371043920517, 0.0021837130188941956, -0.01623987965285778, -0.094387777149677277, 0.020064983516931534, -0.073539756238460541, 0.011408603750169277, 0.12547048926353455, 0.1177898645401001, -0.032510776072740555, 0.21137295663356781, -0.062216825783252716, 0.0010035734158009291, -0.11595010757446289, 0.014458117075264454, 0.029010888189077377, 0.088868193328380585, 0.15233094990253448, -0.047942668199539185, 0.047304097563028336, -0.066660434007644653, -0.082448467612266541, -0.039912771433591843, -0.064887799322605133, -0.0081404736265540123, 0.032863661646842957, -0.059652708470821381, -0.12541483342647552, 0.074263863265514374, 0.096504867076873779, 0.0045639271847903728, 0.069358699023723602, 0.11929722875356674, 0.083681344985961914, -0.0048620821908116341, 0.081684038043022156, -0.069053016602993011, -0.13534756004810333, 0.06515820324420929, -0.066440567374229431, -0.071393825113773346, 0.043549075722694397, -0.069071486592292786, -0.069379419088363647, 0.018396524712443352, 0.0019124342361465096, 0.089028060436248779, 0.091703012585639954, -0.083148203790187836, -0.057920537889003754, 0.048472564667463303, 0.092636197805404663, -0.078197844326496124, 0.00108967290725559, -0.064826130867004395, 0.0024813108611851931, 0.049792122095823288, -0.012376247905194759, 0.064519785344600677, 0.060154058039188385, 0.10233147442340851, -0.05704803392291069, 0.031773857772350311, 0.063711710274219513, 0.046920306980609894, -0.061783824115991592, 0.083730340003967285, 0.088658154010772705, -0.069612070918083191, 0.032662928104400635, 0.095914281904697418, 0.12801210582256317, -0.0028758756816387177, -0.0067879576236009598, -0.033019252121448517, 0.0076070749200880527, 0.12945586442947388, 0.027962245047092438, 0.045964628458023071, 0.040146742016077042, -0.030471194535493851, 0.083290651440620422, 0.1041753888130188, 0.18219532072544098, 0.10983248054981232, -0.056448142975568771, -0.0020224307663738728, -0.0569772869348526, -0.0029381108470261097, -0.076558724045753479, -0.039688896387815475, 0.014957458712160587, 0.046710066497325897, 0.090052321553230286, -0.08078494668006897, 0.1183086484670639, 0.065542131662368774, 0.0093191796913743019, 0.09855981171131134, 0.10033846646547318, 0.010172706097364426, -0.02260281890630722, 0.040303271263837814, 0.029117122292518616, -0.010896530002355576, 0.0034385020844638348, -0.029717622324824333, 0.068495675921440125, 0.041193857789039612, 0.0079475278034806252, -0.018838854506611824, -0.0010648276656866074, 0.12109924852848053, 0.04084368422627449, -0.058028388768434525, 0.15088279545307159, 0.071045905351638794, 
  -0.12155105173587799, -0.08417181670665741, -0.12965194880962372, 0.043963320553302765, -0.07241087406873703, 0.093023210763931274, -0.067478910088539124, 0.043942861258983612, 0.097955957055091858, 0.040760986506938934, -0.17668898403644562, -0.028970502316951752, -0.029295219108462334, 0.028585486114025116, 0.0045988978818058968, 0.18449154496192932, 0.0042740115895867348, 0.028787840157747269, -0.064076952636241913, 0.12576192617416382, 0.0069491993635892868, 0.12246067821979523, 0.024534808471798897, 0.089201882481575012, -0.061512317508459091, -0.08389754593372345, -0.052182305604219437, 0.11530947685241699, -0.038108266890048981, 0.096954382956027985, 0.028978893533349037, 0.11105725169181824, -0.030718199908733368, -0.30136528611183167, 0.019127517938613892, 0.12977741658687592, 0.13602767884731293, 0.20393094420433044, -0.022217344492673874, 0.10739680379629135, -0.042118143290281296, -0.10877386480569839, -0.025340091437101364, 0.021385461091995239, -0.095005720853805542, -0.05481116846203804, 0.0090833129361271858, -0.013253917917609215, -0.020504368469119072, 0.12170780450105667, -0.095383942127227783, 0.087863758206367493, 0.16595351696014404, 0.087669521570205688, 0.11756452172994614, -0.060287471860647202, 0.020427361130714417, -0.2451859712600708, 0.066982917487621307, 0.12893417477607727, -0.18239481747150421, -0.053787805140018463, 0.063050799071788788, 0.071769446134567261, -0.22420492768287659, -0.083246059715747833, -0.13437141478061676, 0.063786640763282776, -0.11225849390029907, 0.031418338418006897, -0.1658078134059906, -0.030051389709115028, 0.059690874069929123, 0.030184797942638397, -0.11633642762899399, -0.053861815482378006, -0.11318114399909973, 0.017275845631957054, -0.21635565161705017, 0.046247102320194244, -0.23488801717758179, 0.051697488874197006, -0.055205322802066803, -0.056597888469696045, -0.13657659292221069, 0.075708575546741486, -0.099245585501194, 0.032588973641395569, -0.13578441739082336, -0.059290096163749695, -0.15868432819843292, 0.084408998489379883, -0.23189184069633484, -0.033472880721092224, -0.054931581020355225, -0.036538023501634598, -0.18393653631210327, 0.0065058302134275436, 0.047535326331853867, 0.084049247205257416, -0.15700915455818176, 0.07037847489118576, -0.22460241615772247, 0.054760318249464035, -0.13263502717018127, 0.080780088901519775, -0.015513957478106022, 0.068157948553562164, -0.23408371210098267, -0.06344275176525116, -0.14804662764072418, 0.052588049322366714, 0.060981802642345428, 0.19890396296977997, 0.00096744176698848605, -0.0094724800437688828, -0.06819625198841095, 0.048978500068187714, -0.099597342312335968, -0.067736700177192688, -0.11995267868041992, 0.042045623064041138, -0.054294731467962265, 0.047539353370666504, 0.029649922624230385, 0.075220942497253418, 0.13751222193241119, -0.0053254291415214539, 0.072506770491600037, -0.11415534466505051, -0.099650904536247253, 0.15698368847370148, -0.0063109914772212505, 0.085855968296527863, -0.12746304273605347, 0.05177699401974678, 0.06796138733625412, -0.058526113629341125, 0.20406456291675568, 0.066594205796718597, 0.0380120649933815, 0.096586242318153381, -0.034545805305242538, -0.051766272634267807, -0.083374828100204468, -0.1240173801779747, -0.031646482646465302, 0.050207920372486115, -0.05598609521985054, 0.10067480057477951, -0.12689165771007538, -0.062966316938400269, -0.12403532117605209, -0.045913435518741608, -0.030708286911249161, -0.081770509481430054, 0.099992692470550537, -0.098339676856994629, 0.12349482625722885, 0.061126247048377991, -0.066428720951080322, 0.13896963000297546, -0.11090490967035294, -0.019116086885333061, 0.026566943153738976, 0.082067966461181641, -0.11964912712574005, 0.018945746123790741, -0.060595288872718811, -0.027445061132311821, -0.19433723390102386, 0.12684996426105499, 0.056040197610855103, 0.090506888926029205, -0.036535128951072693, 0.007763878908008337, 0.15391720831394196, -0.012197304517030716, 0.13307203352451324, -0.01371854729950428, 0.048163380473852158, 0.097193419933319092, 
  0.08679768443107605, -0.06566283106803894, 0.056949898600578308, -0.13704344630241394, -0.045898657292127609, -0.024849725887179375, -0.035995654761791229, -0.078932493925094604, -0.12993267178535461, 0.032093822956085205, -0.11364847421646118, 0.011228034272789955, 0.067805759608745575, 0.12239384651184082, 0.092558123171329498, 0.068592317402362823, -0.099162966012954712, -0.018366632983088493, 0.015085999853909016, 0.0054474128410220146, -0.091733425855636597, -0.059731554239988327, 0.076162219047546387, 0.097299180924892426, 0.043376658111810684, -0.015955902636051178, -0.12177574634552002, 0.057579204440116882, -0.1203453317284584, 0.051601976156234741, 0.022690452635288239, 0.053210634738206863, -0.13572433590888977, -0.085502192378044128, 0.071769893169403076, 0.059448119252920151, -0.088507667183876038, 0.083731517195701599, -0.13495413959026337, -0.018671737983822823, 0.097311250865459442, 0.050087105482816696, -0.089241944253444672, -0.12444195151329041, 0.091976717114448547, 0.089895106852054596, -0.13772772252559662, 0.020724697038531303, 0.0031412721145898104, 0.070311255753040314, -0.10719218850135803, -0.056793011724948883, 0.061710864305496216, 0.15948019921779633, -0.014108325354754925, -0.0043231719173491001, 0.056952733546495438, -0.074925519526004791, 0.075472213327884674, 0.034231983125209808, -0.023246085271239281, -0.064687818288803101, 0.051786445081233978, -0.046744510531425476, -0.022979365661740303, 0.090423382818698883, -0.099366992712020874, 0.021572446450591087, -0.07158651202917099, 0.044843532145023346, 0.11083380877971649, -0.0017441973323002458, 0.10035694390535355, -0.083083413541316986, 0.077584043145179749, 0.042831398546695709, -0.0048440187238156796, -0.06106964498758316, -0.015424760058522224, -0.030677957460284233, -0.084371611475944519, 0.151331827044487, 0.10791437327861786, -0.040009137243032455, -0.065029330551624298, -0.023839749395847321, 0.069888114929199219, -0.01366431824862957, 0.039504494518041611, 0.091188825666904449, 0.13513436913490295, 0.057472489774227142, 0.064907975494861603, 0.11374102532863617, -0.025465959683060646, 0.10686632990837097, 0.026436027139425278, 0.078927688300609589, -0.12084455043077469, -0.011144863441586494, 0.10287442058324814, 0.10610908269882202, -0.058005005121231079, 0.16060440242290497, 0.0030793638434261084, -0.08783172070980072, 0.01409568078815937, 0.10816600918769836, 0.030003642663359642, -0.10534724593162537, -0.058051936328411102, 0.14121462404727936, 0.0063707903027534485, -0.038706984370946884, -0.068495973944664001, -0.026353819295763969, 0.075010709464550018, 0.073076128959655762, 0.091897912323474884, 0.043086256831884384, 0.084109283983707428, -0.0680842325091362, -0.076995700597763062, -0.029067203402519226, 0.10135524719953537, -0.016519257798790932, -0.026317497715353966, -0.01996275782585144, -0.074206091463565826, 0.11034984886646271, -0.0049043674953281879, -0.068191386759281158, -0.064040698111057281, -0.036593299359083176, -0.044894270598888397, 0.02569945901632309, 0.13273142278194427, 0.045857559889554977, 0.042818628251552582, 0.1170123890042305, 0.059384852647781372, 0.017164679244160652, 0.06854034960269928, 0.099657073616981506, -0.12972542643547058, -0.0013591328170150518, -0.027959704399108887, 0.10489436984062195, 0.10399410128593445, 0.042234338819980621, 0.044054202735424042, 0.085121080279350281, 0.011181813664734364, 0.011224653571844101, -0.095491692423820496, 0.12880489230155945, -0.056411989033222198, 0.11060992628335953, -0.076043322682380676, 0.069053888320922852, 0.056268692016601562, 0.022009573876857758, -0.034824825823307037, 0.1443144679069519, -0.091685906052589417, 0.089749783277511597, 0.052668135613203049, 0.061266988515853882, -0.030300458893179893, 0.088984616100788116, 0.15772779285907745, 0.081204451620578766, 0.087299592792987823, -0.015372787602245808, 0.012890923768281937, 0.047009136527776718, 0.067255772650241852, -0.016743753105401993, 0.12445078045129776, -0.11764564365148544, 0.12054251879453659, 0.015896013006567955, 
  0.085247926414012909, -0.036660928279161453, -0.078783847391605377, 0.10939870774745941, 0.004514934029430151, -0.011986197903752327, -0.17746128141880035, -0.20963369309902191, 0.013199710287153721, -0.017572149634361267, 0.078707806766033173, -0.069158367812633514, -0.1118280366063118, -0.074037246406078339, 0.022793799638748169, 0.14470915496349335, -0.024075791239738464, -0.12634041905403137, -0.077235020697116852, -0.077905267477035522, 0.049990184605121613, 0.036206807941198349, -0.033909082412719727, -0.056143961846828461, -0.10610013455152512, 0.0045980643481016159, 0.14463534951210022, -0.031128013506531715, 0.025520069524645805, 0.061631537973880768, -0.0084237987175583839, 0.22412115335464478, -0.17168281972408295, -0.080947116017341614, 0.13062998652458191, 0.032609138637781143, -0.18097667396068573, 0.060414563864469528, 0.07243945449590683, 0.0056856437586247921, -0.095139108598232269, 0.19868011772632599, -0.03094819001853466, -0.065312698483467102, 0.14511333405971527, 0.1546735018491745, 0.060143690556287766, 0.12537485361099243, 0.052909228950738907, 0.021270327270030975, 0.099233873188495636, -0.066888108849525452, -0.051713205873966217, 0.05615389347076416, -0.10624615848064423, 0.093233972787857056, -0.089550532400608063, 0.019115360453724861, -0.14665970206260681, 0.13498656451702118, -0.10204091668128967, -0.081851251423358917, -0.027295771986246109, 0.1925853043794632, -0.1159297451376915, 0.028931604698300362, 0.064810864627361298, 0.036195367574691772, -0.082758359611034393, 0.055222723633050919, -0.13578417897224426, -0.060239925980567932, 0.11143733561038971, 0.0029873976018279791, -0.13900229334831238, -0.022945510223507881, 0.1077081710100174, -0.077736258506774902, 0.10711129009723663, -0.059866122901439667, 0.011953248642385006, -0.054606195539236069, -0.041796334087848663, 0.16375984251499176, -0.14589294791221619, -0.029518695548176765, 0.086244963109493256, -0.0023368960246443748, 0.01805698499083519, 0.060430783778429031, 0.11462365835905075, -0.037122208625078201, 0.057773128151893616, 0.039364941418170929, -0.058055330067873001, -0.075725845992565155, 0.021276211366057396, 0.190048947930336, 0.072977267205715179, 0.073295161128044128, -0.0073063545860350132, -0.036059428006410599, -0.0060045551508665085, 0.11722647398710251, 0.048603463917970657, -0.087331779301166534, 0.012650806456804276, 0.10913560539484024, -0.072714544832706451, -0.042083930224180222, 0.024779345840215683, -0.10991571843624115, -0.081756435334682465, -0.074495658278465271, 0.15539436042308807, 0.039147231727838516, -0.0099814338609576225, -0.063295207917690277, -0.10338573902845383, -0.08184429258108139, 0.079853549599647522, 0.09255576878786087, 0.025744568556547165, 0.10001562535762787, -0.026196571066975594, -0.055953454226255417, 0.11092043668031693, -0.010832637548446655, -0.040984697639942169, 0.025019083172082901, 0.10000811517238617, -0.13306529819965363, 0.043188374489545822, -0.052040260285139084, 0.064681857824325562, 0.038713917136192322, -0.10039591044187546, 0.07721710205078125, 0.012643447145819664, 0.0039782128296792507, -0.066590487957000732, -0.11817050725221634, 0.067588701844215393, -0.02626626193523407, -0.050822563469409943, 0.17091399431228638, 0.14538779854774475, 0.19010604918003082, 0.24989154934883118, -0.015861008316278458, -0.0427439846098423, 0.020632809028029442, -0.11473062634468079, 0.12105074524879456, -0.034143563359975815, -0.041928913444280624, 0.14745344221591949, -0.078422509133815765, -0.041951738297939301, 0.16092154383659363, 0.024138182401657104, 0.0054899388924241066, -0.10250666737556458, 0.049811586737632751, -0.13667407631874084, -0.11312088370323181, 0.017534766346216202, -0.080397218465805054, 0.1108490377664566, -0.050966959446668625, 0.073675684630870819, -0.026764025911688805, -0.039967633783817291, -0.00077380822040140629, 0.11400142312049866, -0.011632281355559826, -0.05296645313501358, 0.028116641566157341, 0.033077895641326904, -0.069386541843414307, -0.0087038660421967506, -0.032817889004945755, 
  -0.024358777329325676, 0.061735339462757111, -0.13321946561336517, -0.15008072555065155, -0.052454568445682526, -0.079668231308460236, -0.056872006505727768, 0.10003163665533066, 0.027004821226000786, 0.015962526202201843, -0.15098758041858673, 0.055191002786159515, -0.11280334740877151, -0.057650335133075714, 0.091116860508918762, 0.034686870872974396, -0.0037513100542128086, 0.11022770404815674, 0.017631003633141518, -0.097101300954818726, -0.011213304474949837, 0.052137166261672974, 0.02355312742292881, -0.099832385778427124, -0.0018295471090823412, 0.08303726464509964, -0.0097685325890779495, -0.060687825083732605, 0.12302110344171524, 0.032859891653060913, -0.053360793739557266, 0.071782894432544708, 0.0089695556089282036, -0.12851938605308533, 0.0047291493974626064, -0.075202465057373047, 0.089532308280467987, 0.0090164970606565475, 0.065082922577857971, 0.041522592306137085, -0.080293960869312286, 0.068397969007492065, -0.10450848191976547, 0.043217353522777557, -0.094664432108402252, 0.098325937986373901, -0.080084234476089478, -0.077149808406829834, -0.077797703444957733, -0.055399097502231598, -0.083911746740341187, 0.078158922493457794, 0.019517792388796806, -0.11724811792373657, -0.042935196310281754, -0.080534011125564575, 0.067053116858005524, 0.032526768743991852, -0.11562232673168182, -0.068684510886669159, -0.022811947390437126, -0.011049072258174419, -0.076071739196777344, 0.066029980778694153, -0.079739987850189209, -0.069839753210544586, -0.090518347918987274, 0.028848316520452499, -0.029846822842955589, -0.044797617942094803, -0.059383846819400787, 0.17064762115478516, -0.051203243434429169, -0.089395917952060699, 0.0062754829414188862, -0.021365733817219734, -0.11289229243993759, -0.075960390269756317, 0.080077789723873138, -0.090798720717430115, -0.13894599676132202, -0.023502510040998459, 0.037995513528585434, 0.13603805005550385, 0.052913840860128403, -0.081300906836986542, -0.17110215127468109, 0.10710813850164413, -0.1050860732793808, 0.10439510643482208, -0.16081987321376801, 0.095167249441146851, -0.093956783413887024, -0.053710553795099258, -0.019172234460711479, -0.1114177331328392, 0.039258521050214767, -0.072026118636131287, -0.14101341366767883, 0.054132275283336639, 0.0030695453751832247, -0.10202128440141678, -0.091071605682373047, 0.11754559725522995, 0.04176618903875351, 0.059435319155454636, -0.017595969140529633, 0.050171084702014923, -0.08658561110496521, -0.097830794751644135, 0.024702908471226692, -0.055697713047266006, 0.021819643676280975, -0.092655271291732788, 0.074920095503330231, -0.09471110999584198, 0.034432310611009598, 0.044268693774938583, 0.056361071765422821, -0.013940200209617615, 0.18477416038513184, -0.085489422082901001, 0.027826976031064987, 0.15737739205360413, 0.1332056075334549, 0.056067630648612976, -0.052809029817581177, 0.11314227432012558, -0.071120880544185638, 0.1498187929391861, -0.068127132952213287, 0.065865136682987213, 0.090896561741828918, -0.040955714881420135, -0.033747602254152298, 0.12346261739730835, -0.10037167370319366, -0.10052932053804398, 0.097718700766563416, 0.053568854928016663, 0.028122782707214355, 0.11991428583860397, -0.03711199015378952, 0.047796383500099182, -0.063810788094997406, 0.062071345746517181, 0.057118162512779236, -0.0060869357548654079, -0.10816454887390137, 0.14801155030727386, 0.1495155394077301, -0.058736644685268402, 0.071486234664916992, 0.035592876374721527, 0.079349204897880554, 0.11974175274372101, -0.038873746991157532, 0.0019344765460118651, 0.066883549094200134, -0.040222492069005966, 0.02511226013302803, 0.088997401297092438, -0.03998357430100441, -0.024048853665590286, -0.0091145401820540428, -0.078204885125160217, 0.16629104316234589, 0.0024019847624003887, -0.016623053699731827, -0.092978402972221375, 0.11269435286521912, -0.048069167882204056, 0.069940179586410522, 0.14383672177791595, 0.036203395575284958, -0.094576694071292877, 0.046011261641979218, 0.016839759424328804, 0.090668603777885437, 0.12999267876148224, -0.013797394931316376, -0.052733290940523148, 
  -0.1099427193403244, -0.080530010163784027, -0.036434534937143326, 0.0028569246642291546, -0.035269256681203842, -0.084465339779853821, -0.16224835813045502, 0.076598279178142548, 0.056740514934062958, -0.0088603664189577103, -0.11355046182870865, -0.12357979267835617, -0.096153527498245239, -0.088239826261997223, 0.058415662497282028, 0.027027914300560951, 0.070772483944892883, -0.085907921195030212, 0.080325841903686523, -0.025980938225984573, 0.043062459677457809, 0.079872645437717438, -0.082467325031757355, -0.058875277638435364, 0.075237102806568146, -0.031736288219690323, -0.15921667218208313, 0.072652667760848999, -0.090825095772743225, -0.062819235026836395, -0.039110679179430008, -0.01689656637609005, 0.12707215547561646, 0.084107644855976105, 0.047247253358364105, 0.10952048748731613, -0.092283837497234344, -0.1556219607591629, -0.072180375456809998, -0.081035584211349487, 0.0029397637117654085, 0.15087983012199402, -0.11333769559860229, 0.014327150769531727, 0.030791847035288811, 0.12235638499259949, -0.044956687837839127, -0.026960574090480804, 0.018326651304960251, 0.033489812165498734, -0.059742596000432968, 0.048535410314798355, -0.020936651155352592, 0.08404647558927536, -0.1176132932305336, 0.071195997297763824, 0.058328080922365189, 0.13572607934474945, -0.11029556393623352, 0.066962756216526031, 0.073610894381999969, -0.079223521053791046, 0.018056053668260574, 0.12116610258817673, 0.062889888882637024, 0.052897833287715912, -0.027060408145189285, 0.08338494598865509, -0.018543612211942673, -0.11757304519414902, 0.071965239942073822, 0.15307459235191345, 0.073072850704193115, 0.093637347221374512, -0.078657001256942749, 0.0093158697709441185, 0.061821646988391876, -0.039896037429571152, 0.11193244904279709, -0.033684052526950836, 0.065085865557193756, 0.042178750038146973, 0.13567851483821869, 0.058373119682073593, -0.12340621650218964, -0.093390956521034241, -0.096407324075698853, 0.1081199049949646, 0.025960652157664299, 0.076425038278102875, 0.048014052212238312, 0.11021874845027924, -0.040757350623607635, -0.0035819383338093758, 0.088775396347045898, -0.10686284303665161, 0.0055642779916524887, -0.0055169155821204185, -0.16944496333599091, -0.059721291065216064, -0.029955577105283737, -0.15855349600315094, -0.15069961547851562, -0.13402126729488373, 0.086530737578868866, -0.013197178021073341, 0.15654528141021729, -0.068582795560359955, 0.050183985382318497, -0.04623807966709137, -0.026857864111661911, -0.05085301399230957, -0.097817495465278625, -0.0055684270337224007, -0.046352904289960861, -0.076796002686023712, 0.0020746211521327496, -0.017967738211154938, 0.10380610823631287, 0.0048501584678888321, -0.014459832571446896, 0.056273773312568665, 0.0032050637528300285, 0.10147079825401306, -0.040737047791481018, 0.081932000815868378, -0.029405666515231133, -0.040788989514112473, -0.084056027233600616, 0.093694962561130524, 0.075649283826351166, 0.09622626006603241, -0.0093647772446274757, -0.050775501877069473, -0.10927341878414154, 0.024639783427119255, 0.11128675192594528, 0.06316491961479187, -0.15068612992763519, 0.045767880976200104, -0.13351660966873169, 0.085458144545555115, -0.066081099212169647, -0.076863177120685577, -0.05940530076622963, -0.057663831859827042, -0.085637152194976807, 0.071631669998168945, -0.025273503735661507, 0.0022951541468501091, -0.12662386894226074, 0.082197330892086029, -0.027121344581246376, -0.06762077659368515, 0.12124363332986832, 0.12803643941879272, 0.058141697198152542, 0.029620662331581116, 0.033254664391279221, 0.059318989515304565, -0.02186431922018528, 0.099347144365310669, 0.17690679430961609, 0.14441895484924316, 0.11888185143470764, 0.060501333326101303, -0.03203989565372467, 0.080249175429344177, -0.015680268406867981, 0.0098214959725737572, 0.1419634073972702, 0.085897959768772125, -0.0079305218532681465, -0.085065305233001709, 0.089409105479717255, -0.005476662889122963, 0.080372899770736694, 0.02807275578379631, -0.016566483303904533, -0.026116635650396347, -0.088838927447795868, 0.11658027023077011, 
  -0.092718459665775299, -0.095353491604328156, 0.014999724924564362, -0.12047351151704788, 0.089084506034851074, -0.0073549370281398296, 0.049300283193588257, 0.12424798309803009, 0.010714183561503887, -0.10276257246732712, -0.067874915897846222, 0.098689883947372437, 0.026335068047046661, -0.061395075172185898, -0.096502736210823059, -0.11283928900957108, -0.13158971071243286, 0.13398335874080658, 0.038954984396696091, 0.02820449136197567, -0.083950713276863098, -0.021049251779913902, 0.042625401169061661, 0.045837517827749252, 0.019428234547376633, -0.054844263941049576, -0.0084999874234199524, -0.010154739953577518, -0.0318790003657341, -0.080927833914756775, 0.069371648132801056, 0.11978624761104584, -0.058250468224287033, -0.04595673456788063, 0.049962092190980911, -0.029616231098771095, 0.0091877076774835587, 0.01837196946144104, -0.073553860187530518, 0.072633557021617889, -0.095397554337978363, -0.043257188051939011, 0.083816669881343842, -0.085187137126922607, -0.032480392605066299, 0.021440848708152771, -0.087620154023170471, 0.050467919558286667, -0.14204984903335571, 0.015407489612698555, -0.13695016503334045, 0.068598009645938873, 0.043465442955493927, 0.070516549050807953, -0.13919468224048615, -0.034179367125034332, -0.065804339945316315, 0.0086452532559633255, 0.04954095184803009, -0.048837196081876755, 0.064481116831302643, -0.054164625704288483, -0.016504110768437386, -0.0065881651826202869, -0.097113020718097687, -0.00098055589478462934, 0.054589726030826569, 0.10349917411804199, 0.10497519373893738, -0.098689951002597809, -0.037933137267827988, 0.037481330335140228, -0.12564896047115326, -0.011748941615223885, 0.065298452973365784, 0.0051128799095749855, 0.088373668491840363, 0.059584647417068481, -0.085994116961956024, 0.071998976171016693, -0.093629606068134308, -0.045088350772857666, 0.10283622145652771, -0.099048823118209839, -0.030619999393820763, 0.11692462116479874, 0.10149513930082321, -0.045001491904258728, -0.0078452089801430702, -0.08666277676820755, -0.072642073035240173, 0.11926689743995667, -0.14618071913719177, -0.022005524486303329, 0.03077714703977108, -0.023933801800012589, -0.074915729463100433, 0.026271538808941841, -0.056122060865163803, 0.071934007108211517, 0.044661421328783035, -0.050693847239017487, -0.038261309266090393, -0.11456432193517685, -0.12822860479354858, 0.081870205700397491, -0.11090119928121567, -0.034163124859333038, -0.056542914360761642, 0.037851668894290924, -0.095436625182628632, 0.041743125766515732, -0.11897412687540054, 0.12183524668216705, -0.05214209109544754, 0.067207016050815582, -0.091671988368034363, -0.018239377066493034, -0.069775991141796112, 0.08537561446428299, -0.11017999798059464, -0.054815337061882019, 0.00048540218267589808, 0.079387962818145752, -0.096355989575386047, 0.088598266243934631, -0.074642859399318695, 0.020430509001016617, -0.050827875733375549, 0.12039940059185028, 0.086135104298591614, 0.11151596903800964, -0.064169831573963165, -0.010261606425046921, 0.091577857732772827, -0.037723883986473083, 0.028003811836242676, 0.090026818215847015, -0.016670020297169685, 0.033227469772100449, 0.04851362481713295, -0.030391823500394821, -0.10404429584741592, 0.049900341778993607, 0.092629723250865936, -0.085678346455097198, -0.12189392000436783, 0.0011016117641702294, 0.034394644200801849, 0.03027782030403614, -0.071518115699291229, -0.041091322898864746, 0.073310129344463348, -0.015378214418888092, 0.082015946507453918, -0.032600332051515579, 0.1306903064250946, 0.13374203443527222, -0.049457453191280365, 0.090677991509437561, 0.039670027792453766, 0.024332631379365921, 0.11900552362203598, 0.0013968879356980324, 0.082940727472305298, 0.01094452477991581, -0.06169707328081131, 0.12222632765769958, 0.033559791743755341, -0.094749718904495239, 0.068017087876796722, 0.059038516134023666, -0.045013073831796646, 0.14338800311088562, 0.031011400744318962, -0.022451499477028847, 0.045871306210756302, -0.062524899840354919, 0.044884301722049713, 0.085087716579437256, 0.096617415547370911, 0.053361739963293076, 
  -0.030359329655766487, 0.084652610123157501, -0.019747268408536911, 0.039102613925933838, 0.10051377862691879, 0.087018094956874847, 0.015735851600766182, -0.01434682309627533, 0.060632757842540741, -0.065078459680080414, 0.19167624413967133, -0.036046560853719711, 0.074857465922832489, 0.12333576381206512, 0.057597838342189789, 0.085399307310581207, 0.1523771733045578, 0.16781359910964966, -0.037874717265367508, -0.15232190489768982, 0.11385979503393173, 0.010263510048389435, 0.16119189560413361, -0.030457640066742897, 0.098843351006507874, -0.186022087931633, -0.03772784024477005, -0.064116470515727997, 0.17393238842487335, -0.074250809848308563, -0.10008040070533752, -0.24161361157894135, 0.12634965777397156, -0.041213911026716232, 0.024853553622961044, -0.13843917846679688, 0.12228555232286453, -0.11392537504434586, 0.12654617428779602, -0.078111924231052399, 0.12944552302360535, -0.094232559204101562, 0.13278542459011078, -0.046175125986337662, 0.045122683048248291, -0.079168058931827545, -0.052559223026037216, -0.045743539929389954, 0.015259138308465481, -0.21553970873355865, -0.056843660771846771, -0.068780280649662018, -0.014540215022861958, 0.034939195960760117, -0.068518072366714478, 0.094497695565223694, 0.027515480294823647, -0.1376325786113739, 0.046091374009847641, 0.0085310116410255432, 0.075489141047000885, 0.014613645151257515, 0.14410477876663208, 0.027606097981333733, 0.058888740837574005, -0.037028804421424866, 0.03683023527264595, -0.046381633728742599, -0.094168752431869507, 0.010129949077963829, 0.017871517688035965, -0.10058403015136719, 0.17184674739837646, -0.1579100638628006, 0.057990364730358124, 0.045404355973005295, 0.10069858282804489, -0.080535687506198883, -0.032581865787506104, -0.042309187352657318, 0.010886651463806629, -0.055030718445777893, 0.029350446537137032, -0.028504598885774612, -0.13980104029178619, 0.086790069937705994, -0.059494771063327789, 0.13599240779876709, 0.051180239766836166, 0.14547522366046906, 0.043574530631303787, 0.070966348052024841, -0.094702154397964478, 0.029681626707315445, -0.10991241782903671, 0.14415007829666138, 0.020160522311925888, 0.13904622197151184, -0.023992782458662987, 0.23558738827705383, 0.10251858830451965, 0.14413535594940186, -0.05992354080080986, 0.076388925313949585, 0.080485217273235321, 0.042130164802074432, -0.089742451906204224, 0.0860261470079422, 0.028763310983777046, -0.066842220723628998, -0.29369491338729858, 0.056056100875139236, 0.049206230789422989, -0.12268529087305069, 0.036674320697784424, 0.14465568959712982, 0.022802703082561493, 0.081529654562473297, -0.10555528104305267, 0.047082360833883286, -0.11310533434152603, -0.0097602922469377518, 0.15511921048164368, -0.0054058898240327835, -0.068623289465904236, 0.066770195960998535, 0.1741282194852829, 0.073631159961223602, -0.001779134850949049, 0.060469381511211395, 0.0091507751494646072, 0.022102255374193192, -0.059211965650320053, 0.021041681990027428, 0.07955101877450943, -0.0018683704547584057, 0.0025392035022377968, -0.050003845244646072, 0.17732250690460205, -0.046950217336416245, 0.079502485692501068, 0.048119429498910904, 0.13999220728874207, -0.038137618452310562, -0.031201694160699844, 0.078991465270519257, 0.038813512772321701, -0.085392378270626068, 0.0044961175881326199, 0.12992170453071594, 0.044397845864295959, 0.10314538329839706, 0.04679396003484726, 0.0082066832110285759, 0.056818857789039612, -0.065701648592948914, -0.025168692693114281, 0.10264896601438522, -0.12092117965221405, 0.018322929739952087, -0.064891666173934937, -0.074828311800956726, 0.044201534241437912, -0.071546219289302826, -0.076518595218658447, -0.033449713140726089, -0.061077471822500229, -0.07454807311296463, -0.067435286939144135, 0.14050623774528503, -0.076674394309520721, -0.030178390443325043, 0.078958600759506226, 0.020379269495606422, -0.10644445568323135, 0.080521076917648315, -0.12185280025005341, -0.025287263095378876, 0.09417840838432312, -0.0096820928156375885, 0.094621032476425171, -0.012960348278284073, 
  -0.12953324615955353, 0.1514226496219635, -0.22715748846530914, 0.26188790798187256, -0.16135150194168091, -0.36213785409927368, 0.03612038865685463, 0.077324844896793365, 0.063401781022548676, 0.075276188552379608, -0.16811713576316833, 0.2779373824596405, -0.11709890514612198, 0.039275672286748886, -0.039928250014781952, -0.0062316767871379852, -0.093423038721084595, -0.055238891392946243, -0.09229704737663269, 0.15874241292476654, -0.14137597382068634, 0.017814014106988907, -0.056128248572349548, 0.16897538304328918, -0.097200497984886169, 0.22985422611236572, -0.13506434857845306, -0.1164032518863678, -0.192366823554039, 0.096724197268486023, 0.028094744309782982, -0.12631390988826752, 0.094222739338874817, 0.3424038290977478, -0.12973181903362274, 0.17372904717922211, -0.10310480743646622, -0.0858616903424263, -0.13371454179286957, 0.18229028582572937, -0.14196616411209106, 0.42444640398025513, -0.37730246782302856, 0.26157352328300476, 0.14051558077335358, 0.15667389333248138, -0.10699241608381271, 0.012211044318974018, -0.11786501109600067, 0.062998130917549133, -0.05740014836192131, -0.032151732593774796, -0.10510975867509842, 0.06276489794254303, -0.029332922771573067, 0.24258561432361603, 0.014034798368811607, 0.18462902307510376, 0.081762120127677917, -0.076473206281661987, -0.15304528176784515, -0.14755085110664368, -0.034882862120866776, -0.020085470750927925, -0.014278637245297432, 0.14090630412101746, -0.42670714855194092, 0.20446622371673584, 0.38984811305999756, 0.049191024154424667, -0.10847730934619904, 0.0054658646695315838, -0.12253578007221222, -0.13553968071937561, 0.094778835773468018, -0.23139719665050507, -0.082245312631130219, -0.067395083606243134, 0.16070742905139923, 0.031423866748809814, 0.037278961390256882, -0.11873172223567963, -0.099645495414733887, -0.15607495605945587, -0.24016313254833221, -0.098599635064601898, -0.032002158463001251, -0.048876840621232986, 0.0012147414963692427, -0.098020188510417938, -0.079417385160923004, 0.082751423120498657, 0.15779750049114227, -0.099070258438587189, -0.018575206398963928, -0.13344129920005798, 0.055395588278770447, -0.045200817286968231, 0.029511433094739914, -0.033322196453809738, -0.049527697265148163, -0.088692419230937958, 0.15459969639778137, 0.031841695308685303, 0.13432604074478149, -0.050323821604251862, 0.097497269511222839, 0.095720119774341583, 0.20743668079376221, -0.036979436874389648, 0.076880089938640594, -0.024374749511480331, -0.005667712539434433, 0.043590694665908813, 0.0990876704454422, -0.094290852546691895, 0.19413429498672485, 0.013419294729828835, 0.3210606575012207, -0.017830846831202507, 0.205347940325737, 0.095427073538303375, 0.10460063815116882, 0.054326947778463364, -0.01804523728787899, 0.10164991766214371, 0.125223308801651, 0.04636089876294136, -0.086068868637084961, -0.036011062562465668, 0.12384270876646042, -0.10159184038639069, 0.21670934557914734, 0.043237734586000443, 0.13447386026382446, 0.0012240315554663539, 0.046180080622434616, -0.015439710579812527, -0.094266004860401154, 0.021556692197918892, 0.066481098532676697, 0.10748334974050522, 0.0051311259157955647, -0.0096737025305628777, 0.0645490363240242, 0.12428037822246552, 0.06305907666683197, -0.0068824663758277893, -0.0039032148197293282, -0.00058410537894815207, 0.037894800305366516, 0.071803286671638489, -0.052350793033838272, 0.048780351877212524, -0.071039699018001556, -0.019986830651760101, -0.1055566817522049, -0.11522367596626282, -0.13787510991096497, -0.030460860580205917, -0.13441097736358643, -0.094195768237113953, -0.080104038119316101, -0.1411706805229187, -0.091189496219158173, 0.042531676590442657, -0.049363948404788971, 0.073213182389736176, -0.084211193025112152, -0.035081237554550171, 0.079178303480148315, 0.035719826817512512, 0.029249394312500954, 0.07573738694190979, -0.10344859957695007, -0.024711219593882561, -0.12763184309005737, -0.067438706755638123, 0.10619518160820007, 0.015382075682282448, -0.060305982828140259, 0.0079253613948822021, 
  -0.098640777170658112, -0.12322546541690826, 0.048268891870975494, 0.06796785444021225, -0.054020419716835022, 0.011093167588114738, -0.0097001129761338234, 0.034784615039825439, -0.09802091121673584, -0.042096126824617386, -0.094976350665092468, -0.00098023342434316874, 0.020283056423068047, 0.12179446965456009, 0.033468440175056458, 0.096953906118869781, 0.1033303290605545, 0.1177758052945137, -0.082111366093158722, -0.0023044806439429522, -0.055207248777151108, -0.054221834987401962, -0.1208505779504776, -0.030515959486365318, 0.11586979031562805, -0.078885689377784729, -0.12505052983760834, 0.054820287972688675, 0.02305019274353981, 0.072069801390171051, -0.010544423013925552, -0.030103245750069618, -0.13050128519535065, 0.045543096959590912, 0.099356092512607574, 0.0069541744887828827, 0.054780960083007812, -0.020749103277921677, 0.014304998330771923, 0.078496888279914856, 0.051638524979352951, 0.13331501185894012, -0.071219973266124725, 0.012751173228025436, 0.022402828559279442, -0.098522178828716278, -0.014360813423991203, 0.080533593893051147, -0.091890513896942139, -0.08688788115978241, -0.022948792204260826, 0.045990582555532455, -0.018664959818124771, -0.13096675276756287, 0.12813772261142731, 0.1026548445224762, -0.0031517192255705595, -0.10629319399595261, 0.021234434098005295, -0.11484672129154205, 0.057630334049463272, 0.12583740055561066, 0.031556084752082825, 0.056243434548377991, 0.081300035119056702, 0.00073136156424880028, -0.0085823126137256622, 0.021814731881022453, -0.063083000481128693, 0.050352171063423157, 0.056608002632856369, 0.078978821635246277, -0.1055220440030098, 0.11875365674495697, -0.038609258830547333, 0.1165633350610733, 0.058775655925273895, 0.063981227576732635, 0.069130837917327881, -0.080495961010456085, -0.11310522258281708, 0.077730067074298859, 0.062102645635604858, -0.039969149976968765, 0.089972518384456635, 0.15381897985935211, -0.021831942722201347, 0.045218221843242645, 0.0027067146729677916, 0.091868586838245392, -0.0026650279760360718, 0.058743380010128021, -0.070326849818229675, -0.053092438727617264, 0.0071046873927116394, -0.12430735677480698, -0.074706323444843292, -0.021169660612940788, 0.020712273195385933, 0.016532678157091141, -0.027685180306434631, 0.10569020360708237, 0.10147272050380707, -0.066377460956573486, -0.03136594220995903, 0.028378976508975029, 0.056668069213628769, -0.099892206490039825, 0.065594926476478577, 0.053366348147392273, -0.1177297905087471, -0.011756234802305698, -0.04230862483382225, 0.044873122125864029, 0.029434435069561005, 0.1188616156578064, -0.054168175905942917, 0.012169362045824528, 0.1178700178861618, 0.16840597987174988, -0.10563507676124573, 0.16522173583507538, -0.034863926470279694, 0.13072404265403748, 0.048595786094665527, -0.071040242910385132, 0.033563539385795593, 0.06526453047990799, -0.08430074155330658, 0.082187086343765259, 0.048921909183263779, -0.030950514599680901, 0.066173635423183441, 0.064324699342250824, -0.095195770263671875, 0.034726642072200775, 0.073684163391590118, 0.046663776040077209, -0.014879358932375908, 0.077523604035377502, 0.041634801775217056, -0.050702538341283798, 0.1370655745267868, -0.058681607246398926, 0.043978802859783173, -0.040558177977800369, -0.011679098010063171, 0.045640159398317337, -0.061276290565729141, -0.041544239968061447, 0.1030062735080719, 0.0017930911853909492, 0.035229507833719254, -0.027114473283290863, 0.061697043478488922, 0.14540736377239227, -0.051383797079324722, 0.079776383936405182, -0.050178676843643188, 0.022164303809404373, -0.074413090944290161, 0.083087585866451263, 0.012428388930857182, -0.020433271303772926, 0.14677758514881134, 0.03539947047829628, 0.096087202429771423, -0.11089272052049637, -0.056745029985904694, 0.061524834483861923, 0.04330115020275116, 0.16240760684013367, 0.12885302305221558, 0.067903004586696625, 0.094678968191146851, 0.11136268079280853, 0.14082102477550507, 0.16860219836235046, 0.087644413113594055, -0.079878844320774078, -0.032200973480939865, 0.040248636156320572, 
  -0.055398102849721909, -0.043071717023849487, -0.048233091831207275, -0.10669401288032532, -0.11695752292871475, 0.11856523901224136, 0.0092827770859003067, 0.093191206455230713, -0.022077534347772598, -0.039285413920879364, -0.045878615230321884, -0.077073432505130768, -0.051656272262334824, -0.13854081928730011, -0.10419808328151703, 0.078920766711235046, -0.14315694570541382, -0.051277536898851395, 0.0051346379332244396, -0.076393172144889832, 0.011192910373210907, -0.1026616245508194, -0.097393766045570374, -0.03937700018286705, 0.070080563426017761, 0.085922807455062866, 0.10447794944047928, 0.0092738857492804527, -0.051140092313289642, 0.13217386603355408, -0.006023322232067585, -0.0049326494336128235, 0.00010097119229612872, -0.03589041531085968, 0.046962399035692215, 0.056108724325895309, 0.0071600317023694515, 0.014200272969901562, 0.052596807479858398, -0.11500962823629379, 0.099945060908794403, -0.109947569668293, 0.047829844057559967, 0.078591585159301758, 0.020463909953832626, -0.10519105195999146, -0.0089301792904734612, 0.041176959872245789, 0.087449550628662109, -0.09959808737039566, 0.10153399407863617, -0.011266758665442467, -0.0039888713508844376, -0.022081006318330765, -0.11678186058998108, 0.038131143897771835, -0.10711611062288284, 0.096757963299751282, 0.010985905304551125, -0.083810724318027496, 0.066057592630386353, 0.041364483535289764, -0.11426500231027603, -0.11784482002258301, 0.0759926438331604, 0.021976714953780174, -0.018854409456253052, -0.08456718921661377, -0.029404154047369957, 0.076652653515338898, 0.03740876168012619, -0.044611521065235138, 0.12072134017944336, 0.0036525016184896231, -0.099214911460876465, 0.050206806510686874, -0.020918566733598709, -0.0029763246420770884, 0.091506503522396088, 0.10341542959213257, 0.10741818696260452, -0.065226353704929352, -0.057198807597160339, -0.042955636978149414, -0.024170516058802605, 0.053107831627130508, -0.042769014835357666, 0.13665477931499481, 0.091644503176212311, 0.069011956453323364, -0.013184922747313976, -0.028741845861077309, 0.020242964848875999, -0.062579415738582611, 0.093117289245128632, -0.068312056362628937, 0.035339299589395523, -0.045797422528266907, -0.10316678136587143, 0.093375943601131439, 0.03259345144033432, 0.10467713326215744, 0.063221976161003113, 0.15057080984115601, -0.028581870719790459, -0.003462368156760931, 0.095123313367366791, 0.011113730259239674, 0.044280834496021271, 0.08894483745098114, -0.086982414126396179, -0.040970932692289352, 0.1172381117939949, -0.097563117742538452, 0.033976182341575623, 0.0065119466744363308, -0.069184660911560059, -0.011248048394918442, 0.057927422225475311, -0.026285413652658463, 0.0063556809909641743, 0.080420598387718201, 0.07922738790512085, -0.089232131838798523, 0.025498401373624802, 0.077546633780002594, 0.10151354223489761, -0.071526423096656799, 0.084465451538562775, 0.053388353437185287, -0.081986851990222931, 0.051259499043226242, 0.087268471717834473, 0.022671693935990334, -0.0088708717375993729, 0.03278953954577446, 0.091069266200065613, 0.11839958280324936, -0.010353626683354378, -0.073858864605426788, 0.083660870790481567, 0.14234204590320587, 0.14576330780982971, -0.075210370123386383, -0.099776066839694977, 0.0356757752597332, 0.12968218326568604, 0.095550380647182465, -0.082895182073116302, 0.042317017912864685, -0.033828940242528915, 0.13974703848361969, 0.042438749223947525, -0.08664809912443161, 0.032756727188825607, 0.11595528572797775, 0.032170381397008896, 0.11970675736665726, 0.12545207142829895, 0.059211332350969315, 0.086516328155994415, -0.063665732741355896, 0.12663024663925171, 0.02592887170612812, -0.092543803155422211, -0.064470164477825165, 0.026418523862957954, -0.032529350370168686, 0.042877752333879471, 0.087561614811420441, -0.00040692545007914305, -0.010720430873334408, -0.034074682742357254, -0.025621820241212845, -0.047812532633543015, -0.012145868502557278, -0.0029049792792648077, 0.062544316053390503, -0.046842791140079498, 0.10660266131162643, 0.015600412152707577, 0.0016591162420809269, 
